FANN_FIX_2.0
decimal_point=4
num_layers=3
learning_rate=0.700000
connection_rate=1.000000
network_type=0
learning_momentum=0.000000
training_algorithm=2
train_error_function=1
train_stop_function=0
cascade_output_change_fraction=0.010000
quickprop_decay=-0.000100
quickprop_mu=1.750000
rprop_increase_factor=1.200000
rprop_decrease_factor=0.500000
rprop_delta_min=0.000000
rprop_delta_max=50.000000
rprop_delta_zero=0.100000
cascade_output_stagnation_epochs=12
cascade_candidate_change_fraction=0.010000
cascade_candidate_stagnation_epochs=12
cascade_max_out_epochs=150
cascade_min_out_epochs=50
cascade_max_cand_epochs=150
cascade_min_cand_epochs=50
cascade_num_candidate_groups=2
bit_fail_limit=6
cascade_candidate_limit=16000
cascade_weight_multiplier=6
cascade_activation_functions_count=10
cascade_activation_functions=3 5 7 8 10 11 14 15 16 17 
cascade_activation_steepnesses_count=4
cascade_activation_steepnesses=4 8 12 16 
layer_sizes=901 2 6 
neurons (num_inputs, activation_function, activation_steepness)=(0, 0, 0) (0, 0, 0) (0, 0, 0) (0, 0, 0) (0, 0, 0) (0, 0, 0) (0, 0, 0) (0, 0, 0) (0, 0, 0) (0, 0, 0) (0, 0, 0) (0, 0, 0) (0, 0, 0) (0, 0, 0) (0, 0, 0) (0, 0, 0) (0, 0, 0) (0, 0, 0) (0, 0, 0) (0, 0, 0) (0, 0, 0) (0, 0, 0) (0, 0, 0) (0, 0, 0) (0, 0, 0) (0, 0, 0) (0, 0, 0) (0, 0, 0) (0, 0, 0) (0, 0, 0) (0, 0, 0) (0, 0, 0) (0, 0, 0) (0, 0, 0) (0, 0, 0) (0, 0, 0) (0, 0, 0) (0, 0, 0) (0, 0, 0) (0, 0, 0) (0, 0, 0) (0, 0, 0) (0, 0, 0) (0, 0, 0) (0, 0, 0) (0, 0, 0) (0, 0, 0) (0, 0, 0) (0, 0, 0) (0, 0, 0) (0, 0, 0) (0, 0, 0) (0, 0, 0) (0, 0, 0) (0, 0, 0) (0, 0, 0) (0, 0, 0) (0, 0, 0) (0, 0, 0) (0, 0, 0) (0, 0, 0) (0, 0, 0) (0, 0, 0) (0, 0, 0) (0, 0, 0) (0, 0, 0) (0, 0, 0) (0, 0, 0) (0, 0, 0) (0, 0, 0) (0, 0, 0) (0, 0, 0) (0, 0, 0) (0, 0, 0) (0, 0, 0) (0, 0, 0) (0, 0, 0) (0, 0, 0) (0, 0, 0) (0, 0, 0) (0, 0, 0) (0, 0, 0) (0, 0, 0) (0, 0, 0) (0, 0, 0) (0, 0, 0) (0, 0, 0) (0, 0, 0) (0, 0, 0) (0, 0, 0) (0, 0, 0) (0, 0, 0) (0, 0, 0) (0, 0, 0) (0, 0, 0) (0, 0, 0) (0, 0, 0) (0, 0, 0) (0, 0, 0) (0, 0, 0) (0, 0, 0) (0, 0, 0) (0, 0, 0) (0, 0, 0) (0, 0, 0) (0, 0, 0) (0, 0, 0) (0, 0, 0) (0, 0, 0) (0, 0, 0) (0, 0, 0) (0, 0, 0) (0, 0, 0) (0, 0, 0) (0, 0, 0) (0, 0, 0) (0, 0, 0) (0, 0, 0) (0, 0, 0) (0, 0, 0) (0, 0, 0) (0, 0, 0) (0, 0, 0) (0, 0, 0) (0, 0, 0) (0, 0, 0) (0, 0, 0) (0, 0, 0) (0, 0, 0) (0, 0, 0) (0, 0, 0) (0, 0, 0) (0, 0, 0) (0, 0, 0) (0, 0, 0) (0, 0, 0) (0, 0, 0) (0, 0, 0) (0, 0, 0) (0, 0, 0) (0, 0, 0) (0, 0, 0) (0, 0, 0) (0, 0, 0) (0, 0, 0) (0, 0, 0) (0, 0, 0) (0, 0, 0) (0, 0, 0) (0, 0, 0) (0, 0, 0) (0, 0, 0) (0, 0, 0) (0, 0, 0) (0, 0, 0) (0, 0, 0) (0, 0, 0) (0, 0, 0) (0, 0, 0) (0, 0, 0) (0, 0, 0) (0, 0, 0) (0, 0, 0) (0, 0, 0) (0, 0, 0) (0, 0, 0) (0, 0, 0) (0, 0, 0) (0, 0, 0) (0, 0, 0) (0, 0, 0) (0, 0, 0) (0, 0, 0) (0, 0, 0) (0, 0, 0) (0, 0, 0) (0, 0, 0) (0, 0, 0) (0, 0, 0) (0, 0, 0) (0, 0, 0) (0, 0, 0) (0, 0, 0) (0, 0, 0) (0, 0, 0) (0, 0, 0) (0, 0, 0) (0, 0, 0) (0, 0, 0) (0, 0, 0) (0, 0, 0) (0, 0, 0) (0, 0, 0) (0, 0, 0) (0, 0, 0) (0, 0, 0) (0, 0, 0) (0, 0, 0) (0, 0, 0) (0, 0, 0) (0, 0, 0) (0, 0, 0) (0, 0, 0) (0, 0, 0) (0, 0, 0) (0, 0, 0) (0, 0, 0) (0, 0, 0) (0, 0, 0) (0, 0, 0) (0, 0, 0) (0, 0, 0) (0, 0, 0) (0, 0, 0) (0, 0, 0) (0, 0, 0) (0, 0, 0) (0, 0, 0) (0, 0, 0) (0, 0, 0) (0, 0, 0) (0, 0, 0) (0, 0, 0) (0, 0, 0) (0, 0, 0) (0, 0, 0) (0, 0, 0) (0, 0, 0) (0, 0, 0) (0, 0, 0) (0, 0, 0) (0, 0, 0) (0, 0, 0) (0, 0, 0) (0, 0, 0) (0, 0, 0) (0, 0, 0) (0, 0, 0) (0, 0, 0) (0, 0, 0) (0, 0, 0) (0, 0, 0) (0, 0, 0) (0, 0, 0) (0, 0, 0) (0, 0, 0) (0, 0, 0) (0, 0, 0) (0, 0, 0) (0, 0, 0) (0, 0, 0) (0, 0, 0) (0, 0, 0) (0, 0, 0) (0, 0, 0) (0, 0, 0) (0, 0, 0) (0, 0, 0) (0, 0, 0) (0, 0, 0) (0, 0, 0) (0, 0, 0) (0, 0, 0) (0, 0, 0) (0, 0, 0) (0, 0, 0) (0, 0, 0) (0, 0, 0) (0, 0, 0) (0, 0, 0) (0, 0, 0) (0, 0, 0) (0, 0, 0) (0, 0, 0) (0, 0, 0) (0, 0, 0) (0, 0, 0) (0, 0, 0) (0, 0, 0) (0, 0, 0) (0, 0, 0) (0, 0, 0) (0, 0, 0) (0, 0, 0) (0, 0, 0) (0, 0, 0) (0, 0, 0) (0, 0, 0) (0, 0, 0) (0, 0, 0) (0, 0, 0) (0, 0, 0) (0, 0, 0) (0, 0, 0) (0, 0, 0) (0, 0, 0) (0, 0, 0) (0, 0, 0) (0, 0, 0) (0, 0, 0) (0, 0, 0) (0, 0, 0) (0, 0, 0) (0, 0, 0) (0, 0, 0) (0, 0, 0) (0, 0, 0) (0, 0, 0) (0, 0, 0) (0, 0, 0) (0, 0, 0) (0, 0, 0) (0, 0, 0) (0, 0, 0) (0, 0, 0) (0, 0, 0) (0, 0, 0) (0, 0, 0) (0, 0, 0) (0, 0, 0) (0, 0, 0) (0, 0, 0) (0, 0, 0) (0, 0, 0) (0, 0, 0) (0, 0, 0) (0, 0, 0) (0, 0, 0) (0, 0, 0) (0, 0, 0) (0, 0, 0) (0, 0, 0) (0, 0, 0) (0, 0, 0) (0, 0, 0) (0, 0, 0) (0, 0, 0) (0, 0, 0) (0, 0, 0) (0, 0, 0) (0, 0, 0) (0, 0, 0) (0, 0, 0) (0, 0, 0) (0, 0, 0) (0, 0, 0) (0, 0, 0) (0, 0, 0) (0, 0, 0) (0, 0, 0) (0, 0, 0) (0, 0, 0) (0, 0, 0) (0, 0, 0) (0, 0, 0) (0, 0, 0) (0, 0, 0) (0, 0, 0) (0, 0, 0) (0, 0, 0) (0, 0, 0) (0, 0, 0) (0, 0, 0) (0, 0, 0) (0, 0, 0) (0, 0, 0) (0, 0, 0) (0, 0, 0) (0, 0, 0) (0, 0, 0) (0, 0, 0) (0, 0, 0) (0, 0, 0) (0, 0, 0) (0, 0, 0) (0, 0, 0) (0, 0, 0) (0, 0, 0) (0, 0, 0) (0, 0, 0) (0, 0, 0) (0, 0, 0) (0, 0, 0) (0, 0, 0) (0, 0, 0) (0, 0, 0) (0, 0, 0) (0, 0, 0) (0, 0, 0) (0, 0, 0) (0, 0, 0) (0, 0, 0) (0, 0, 0) (0, 0, 0) (0, 0, 0) (0, 0, 0) (0, 0, 0) (0, 0, 0) (0, 0, 0) (0, 0, 0) (0, 0, 0) (0, 0, 0) (0, 0, 0) (0, 0, 0) (0, 0, 0) (0, 0, 0) (0, 0, 0) (0, 0, 0) (0, 0, 0) (0, 0, 0) (0, 0, 0) (0, 0, 0) (0, 0, 0) (0, 0, 0) (0, 0, 0) (0, 0, 0) (0, 0, 0) (0, 0, 0) (0, 0, 0) (0, 0, 0) (0, 0, 0) (0, 0, 0) (0, 0, 0) (0, 0, 0) (0, 0, 0) (0, 0, 0) (0, 0, 0) (0, 0, 0) (0, 0, 0) (0, 0, 0) (0, 0, 0) (0, 0, 0) (0, 0, 0) (0, 0, 0) (0, 0, 0) (0, 0, 0) (0, 0, 0) (0, 0, 0) (0, 0, 0) (0, 0, 0) (0, 0, 0) (0, 0, 0) (0, 0, 0) (0, 0, 0) (0, 0, 0) (0, 0, 0) (0, 0, 0) (0, 0, 0) (0, 0, 0) (0, 0, 0) (0, 0, 0) (0, 0, 0) (0, 0, 0) (0, 0, 0) (0, 0, 0) (0, 0, 0) (0, 0, 0) (0, 0, 0) (0, 0, 0) (0, 0, 0) (0, 0, 0) (0, 0, 0) (0, 0, 0) (0, 0, 0) (0, 0, 0) (0, 0, 0) (0, 0, 0) (0, 0, 0) (0, 0, 0) (0, 0, 0) (0, 0, 0) (0, 0, 0) (0, 0, 0) (0, 0, 0) (0, 0, 0) (0, 0, 0) (0, 0, 0) (0, 0, 0) (0, 0, 0) (0, 0, 0) (0, 0, 0) (0, 0, 0) (0, 0, 0) (0, 0, 0) (0, 0, 0) (0, 0, 0) (0, 0, 0) (0, 0, 0) (0, 0, 0) (0, 0, 0) (0, 0, 0) (0, 0, 0) (0, 0, 0) (0, 0, 0) (0, 0, 0) (0, 0, 0) (0, 0, 0) (0, 0, 0) (0, 0, 0) (0, 0, 0) (0, 0, 0) (0, 0, 0) (0, 0, 0) (0, 0, 0) (0, 0, 0) (0, 0, 0) (0, 0, 0) (0, 0, 0) (0, 0, 0) (0, 0, 0) (0, 0, 0) (0, 0, 0) (0, 0, 0) (0, 0, 0) (0, 0, 0) (0, 0, 0) (0, 0, 0) (0, 0, 0) (0, 0, 0) (0, 0, 0) (0, 0, 0) (0, 0, 0) (0, 0, 0) (0, 0, 0) (0, 0, 0) (0, 0, 0) (0, 0, 0) (0, 0, 0) (0, 0, 0) (0, 0, 0) (0, 0, 0) (0, 0, 0) (0, 0, 0) (0, 0, 0) (0, 0, 0) (0, 0, 0) (0, 0, 0) (0, 0, 0) (0, 0, 0) (0, 0, 0) (0, 0, 0) (0, 0, 0) (0, 0, 0) (0, 0, 0) (0, 0, 0) (0, 0, 0) (0, 0, 0) (0, 0, 0) (0, 0, 0) (0, 0, 0) (0, 0, 0) (0, 0, 0) (0, 0, 0) (0, 0, 0) (0, 0, 0) (0, 0, 0) (0, 0, 0) (0, 0, 0) (0, 0, 0) (0, 0, 0) (0, 0, 0) (0, 0, 0) (0, 0, 0) (0, 0, 0) (0, 0, 0) (0, 0, 0) (0, 0, 0) (0, 0, 0) (0, 0, 0) (0, 0, 0) (0, 0, 0) (0, 0, 0) (0, 0, 0) (0, 0, 0) (0, 0, 0) (0, 0, 0) (0, 0, 0) (0, 0, 0) (0, 0, 0) (0, 0, 0) (0, 0, 0) (0, 0, 0) (0, 0, 0) (0, 0, 0) (0, 0, 0) (0, 0, 0) (0, 0, 0) (0, 0, 0) (0, 0, 0) (0, 0, 0) (0, 0, 0) (0, 0, 0) (0, 0, 0) (0, 0, 0) (0, 0, 0) (0, 0, 0) (0, 0, 0) (0, 0, 0) (0, 0, 0) (0, 0, 0) (0, 0, 0) (0, 0, 0) (0, 0, 0) (0, 0, 0) (0, 0, 0) (0, 0, 0) (0, 0, 0) (0, 0, 0) (0, 0, 0) (0, 0, 0) (0, 0, 0) (0, 0, 0) (0, 0, 0) (0, 0, 0) (0, 0, 0) (0, 0, 0) (0, 0, 0) (0, 0, 0) (0, 0, 0) (0, 0, 0) (0, 0, 0) (0, 0, 0) (0, 0, 0) (0, 0, 0) (0, 0, 0) (0, 0, 0) (0, 0, 0) (0, 0, 0) (0, 0, 0) (0, 0, 0) (0, 0, 0) (0, 0, 0) (0, 0, 0) (0, 0, 0) (0, 0, 0) (0, 0, 0) (0, 0, 0) (0, 0, 0) (0, 0, 0) (0, 0, 0) (0, 0, 0) (0, 0, 0) (0, 0, 0) (0, 0, 0) (0, 0, 0) (0, 0, 0) (0, 0, 0) (0, 0, 0) (0, 0, 0) (0, 0, 0) (0, 0, 0) (0, 0, 0) (0, 0, 0) (0, 0, 0) (0, 0, 0) (0, 0, 0) (0, 0, 0) (0, 0, 0) (0, 0, 0) (0, 0, 0) (0, 0, 0) (0, 0, 0) (0, 0, 0) (0, 0, 0) (0, 0, 0) (0, 0, 0) (0, 0, 0) (0, 0, 0) (0, 0, 0) (0, 0, 0) (0, 0, 0) (0, 0, 0) (0, 0, 0) (0, 0, 0) (0, 0, 0) (0, 0, 0) (0, 0, 0) (0, 0, 0) (0, 0, 0) (0, 0, 0) (0, 0, 0) (0, 0, 0) (0, 0, 0) (0, 0, 0) (0, 0, 0) (0, 0, 0) (0, 0, 0) (0, 0, 0) (0, 0, 0) (0, 0, 0) (0, 0, 0) (0, 0, 0) (0, 0, 0) (0, 0, 0) (0, 0, 0) (0, 0, 0) (0, 0, 0) (0, 0, 0) (0, 0, 0) (0, 0, 0) (0, 0, 0) (0, 0, 0) (0, 0, 0) (0, 0, 0) (0, 0, 0) (0, 0, 0) (0, 0, 0) (0, 0, 0) (0, 0, 0) (0, 0, 0) (0, 0, 0) (0, 0, 0) (0, 0, 0) (0, 0, 0) (0, 0, 0) (0, 0, 0) (0, 0, 0) (0, 0, 0) (0, 0, 0) (0, 0, 0) (0, 0, 0) (0, 0, 0) (0, 0, 0) (0, 0, 0) (0, 0, 0) (0, 0, 0) (0, 0, 0) (0, 0, 0) (0, 0, 0) (0, 0, 0) (0, 0, 0) (0, 0, 0) (0, 0, 0) (0, 0, 0) (0, 0, 0) (0, 0, 0) (0, 0, 0) (0, 0, 0) (0, 0, 0) (0, 0, 0) (0, 0, 0) (0, 0, 0) (0, 0, 0) (0, 0, 0) (0, 0, 0) (0, 0, 0) (0, 0, 0) (0, 0, 0) (0, 0, 0) (0, 0, 0) (0, 0, 0) (0, 0, 0) (0, 0, 0) (0, 0, 0) (0, 0, 0) (0, 0, 0) (0, 0, 0) (0, 0, 0) (0, 0, 0) (0, 0, 0) (0, 0, 0) (0, 0, 0) (0, 0, 0) (0, 0, 0) (0, 0, 0) (0, 0, 0) (0, 0, 0) (0, 0, 0) (0, 0, 0) (0, 0, 0) (0, 0, 0) (0, 0, 0) (0, 0, 0) (0, 0, 0) (0, 0, 0) (0, 0, 0) (0, 0, 0) (0, 0, 0) (0, 0, 0) (0, 0, 0) (0, 0, 0) (0, 0, 0) (0, 0, 0) (0, 0, 0) (0, 0, 0) (0, 0, 0) (0, 0, 0) (0, 0, 0) (0, 0, 0) (0, 0, 0) (0, 0, 0) (0, 0, 0) (0, 0, 0) (0, 0, 0) (0, 0, 0) (0, 0, 0) (0, 0, 0) (0, 0, 0) (0, 0, 0) (0, 0, 0) (0, 0, 0) (0, 0, 0) (0, 0, 0) (0, 0, 0) (0, 0, 0) (0, 0, 0) (0, 0, 0) (0, 0, 0) (0, 0, 0) (0, 0, 0) (0, 0, 0) (0, 0, 0) (0, 0, 0) (0, 0, 0) (0, 0, 0) (0, 0, 0) (0, 0, 0) (0, 0, 0) (0, 0, 0) (0, 0, 0) (0, 0, 0) (0, 0, 0) (0, 0, 0) (0, 0, 0) (0, 0, 0) (0, 0, 0) (0, 0, 0) (0, 0, 0) (0, 0, 0) (0, 0, 0) (0, 0, 0) (0, 0, 0) (0, 0, 0) (0, 0, 0) (0, 0, 0) (0, 0, 0) (0, 0, 0) (0, 0, 0) (0, 0, 0) (0, 0, 0) (0, 0, 0) (0, 0, 0) (0, 0, 0) (0, 0, 0) (0, 0, 0) (0, 0, 0) (0, 0, 0) (0, 0, 0) (0, 0, 0) (0, 0, 0) (0, 0, 0) (0, 0, 0) (0, 0, 0) (0, 0, 0) (0, 0, 0) (0, 0, 0) (0, 0, 0) (0, 0, 0) (0, 0, 0) (0, 0, 0) (0, 0, 0) (0, 0, 0) (0, 0, 0) (0, 0, 0) (0, 0, 0) (0, 0, 0) (0, 0, 0) (0, 0, 0) (0, 0, 0) (0, 0, 0) (0, 0, 0) (0, 0, 0) (0, 0, 0) (0, 0, 0) (0, 0, 0) (0, 0, 0) (0, 0, 0) (0, 0, 0) (0, 0, 0) (0, 0, 0) (0, 0, 0) (0, 0, 0) (0, 0, 0) (0, 0, 0) (0, 0, 0) (0, 0, 0) (0, 0, 0) (0, 0, 0) (0, 0, 0) (0, 0, 0) (0, 0, 0) (0, 0, 0) (0, 0, 0) (0, 0, 0) (0, 0, 0) (0, 0, 0) (0, 0, 0) (0, 0, 0) (0, 0, 0) (0, 0, 0) (0, 0, 0) (901, 3, 16) (0, 3, 16) (2, 3, 80) (2, 3, 80) (2, 3, 80) (2, 3, 80) (2, 3, 80) (0, 3, 80) 
connections (connected_to_neuron, weight)=(0, 24000) (1, -24000) (2, -24000) (3, -24000) (4, 24000) (5, 24000) (6, -24000) (7, -24000) (8, 24000) (9, 24000) (10, 24000) (11, -24000) (12, -24000) (13, 24000) (14, 24000) (15, 24000) (16, 24000) (17, -24000) (18, -24000) (19, -24000) (20, -24000) (21, -24000) (22, 24000) (23, -24000) (24, 24000) (25, 24000) (26, 24000) (27, 24000) (28, 24000) (29, 24000) (30, 24000) (31, 24000) (32, 24000) (33, -24000) (34, -24000) (35, -24000) (36, 24000) (37, 24000) (38, 24000) (39, 24000) (40, 24000) (41, -24000) (42, -24000) (43, -24000) (44, 24000) (45, 24000) (46, -24000) (47, -24000) (48, 24000) (49, 24000) (50, -24000) (51, -24000) (52, -24000) (53, -24000) (54, -24000) (55, -24000) (56, -24000) (57, -24000) (58, -24000) (59, -24000) (60, 24000) (61, 24000) (62, 24000) (63, -24000) (64, 24000) (65, 24000) (66, 24000) (67, 24000) (68, 24000) (69, 24000) (70, 24000) (71, 24000) (72, 24000) (73, 24000) (74, -24000) (75, -24000) (76, 24000) (77, -24000) (78, -24000) (79, -24000) (80, -24000) (81, -24000) (82, -24000) (83, -24000) (84, -24000) (85, -24000) (86, -24000) (87, -24000) (88, -24000) (89, -24000) (90, -24000) (91, -24000) (92, -24000) (93, -24000) (94, -24000) (95, -24000) (96, -24000) (97, -24000) (98, -24000) (99, -24000) (100, -24000) (101, -24000) (102, -24000) (103, -24000) (104, -24000) (105, -24000) (106, -24000) (107, -24000) (108, -24000) (109, -24000) (110, -24000) (111, -24000) (112, -24000) (113, -24000) (114, -24000) (115, -24000) (116, -24000) (117, -24000) (118, -24000) (119, -24000) (120, -24000) (121, -24000) (122, -24000) (123, -24000) (124, -24000) (125, -24000) (126, -24000) (127, -24000) (128, -24000) (129, -24000) (130, -24000) (131, -24000) (132, -24000) (133, -24000) (134, -24000) (135, -24000) (136, -24000) (137, -24000) (138, -24000) (139, -24000) (140, -24000) (141, -24000) (142, -24000) (143, -24000) (144, -24000) (145, -24000) (146, -24000) (147, -24000) (148, -24000) (149, -24000) (150, -24000) (151, -24000) (152, -24000) (153, -24000) (154, -24000) (155, -24000) (156, -24000) (157, -24000) (158, -24000) (159, -24000) (160, -24000) (161, -24000) (162, -24000) (163, -24000) (164, -24000) (165, -24000) (166, -24000) (167, -24000) (168, -24000) (169, -24000) (170, -24000) (171, -24000) (172, -24000) (173, -24000) (174, -24000) (175, -24000) (176, -24000) (177, -24000) (178, -24000) (179, 24000) (180, -24000) (181, 24000) (182, -24000) (183, -24000) (184, -24000) (185, -24000) (186, -24000) (187, -24000) (188, -24000) (189, -24000) (190, -24000) (191, -24000) (192, -24000) (193, -24000) (194, -24000) (195, -24000) (196, 24000) (197, -24000) (198, -24000) (199, -24000) (200, -24000) (201, 24000) (202, 24000) (203, -24000) (204, -24000) (205, -24000) (206, 24000) (207, 24000) (208, -24000) (209, -24000) (210, 24000) (211, -24000) (212, -24000) (213, -24000) (214, -24000) (215, -24000) (216, -24000) (217, -24000) (218, -24000) (219, -24000) (220, -24000) (221, -24000) (222, -24000) (223, -24000) (224, -24000) (225, -24000) (226, -24000) (227, -24000) (228, -24000) (229, -24000) (230, -24000) (231, -24000) (232, -24000) (233, 24000) (234, -24000) (235, -24000) (236, 24000) (237, 24000) (238, 24000) (239, 24000) (240, 24000) (241, 24000) (242, -24000) (243, -24000) (244, -24000) (245, 24000) (246, 24000) (247, 24000) (248, -24000) (249, -24000) (250, -24000) (251, 24000) (252, -24000) (253, 24000) (254, 24000) (255, -24000) (256, -24000) (257, -24000) (258, -24000) (259, 24000) (260, -24000) (261, -24000) (262, -24000) (263, -24000) (264, -24000) (265, -24000) (266, -24000) (267, 24000) (268, 24000) (269, 24000) (270, 24000) (271, 24000) (272, 24000) (273, 24000) (274, -24000) (275, -24000) (276, 24000) (277, 24000) (278, -24000) (279, -24000) (280, -24000) (281, -24000) (282, -24000) (283, -24000) (284, 24000) (285, -24000) (286, 24000) (287, 24000) (288, -24000) (289, -24000) (290, -24000) (291, 24000) (292, -24000) (293, 24000) (294, 24000) (295, 24000) (296, -24000) (297, -24000) (298, -24000) (299, -24000) (300, 24000) (301, -24000) (302, -24000) (303, -24000) (304, -24000) (305, 24000) (306, 24000) (307, -24000) (308, -24000) (309, -24000) (310, -24000) (311, 24000) (312, 24000) (313, 24000) (314, -24000) (315, -24000) (316, 24000) (317, -24000) (318, 24000) (319, 24000) (320, -24000) (321, -24000) (322, -24000) (323, 24000) (324, 24000) (325, 24000) (326, 24000) (327, -24000) (328, 24000) (329, 24000) (330, 24000) (331, -24000) (332, -24000) (333, 24000) (334, 24000) (335, 24000) (336, -24000) (337, -24000) (338, -24000) (339, -24000) (340, -24000) (341, -24000) (342, -24000) (343, 24000) (344, -24000) (345, -24000) (346, -24000) (347, -24000) (348, -24000) (349, -24000) (350, -24000) (351, 24000) (352, -24000) (353, -24000) (354, -24000) (355, -24000) (356, 24000) (357, 24000) (358, 24000) (359, 24000) (360, 24000) (361, -24000) (362, 24000) (363, 24000) (364, 24000) (365, 24000) (366, 24000) (367, -24000) (368, -24000) (369, -24000) (370, -24000) (371, -24000) (372, -24000) (373, -24000) (374, -24000) (375, 24000) (376, 24000) (377, -24000) (378, -24000) (379, -24000) (380, -24000) (381, -24000) (382, -24000) (383, -24000) (384, -24000) (385, -24000) (386, -24000) (387, 24000) (388, 24000) (389, 24000) (390, 24000) (391, 24000) (392, 24000) (393, 24000) (394, -24000) (395, -24000) (396, 24000) (397, -24000) (398, -24000) (399, -24000) (400, -24000) (401, -24000) (402, -24000) (403, -24000) (404, -24000) (405, -24000) (406, -24000) (407, 24000) (408, 24000) (409, 24000) (410, 24000) (411, -24000) (412, 24000) (413, 24000) (414, -24000) (415, 24000) (416, 24000) (417, -24000) (418, 24000) (419, -24000) (420, -24000) (421, -24000) (422, -24000) (423, -24000) (424, -24000) (425, 24000) (426, -24000) (427, -24000) (428, -24000) (429, -24000) (430, -24000) (431, -24000) (432, -24000) (433, -24000) (434, -24000) (435, -24000) (436, -24000) (437, -24000) (438, 24000) (439, -24000) (440, -24000) (441, 24000) (442, 24000) (443, 24000) (444, -24000) (445, -24000) (446, -24000) (447, 24000) (448, 24000) (449, 24000) (450, 24000) (451, -24000) (452, -24000) (453, -24000) (454, -24000) (455, -24000) (456, -24000) (457, -24000) (458, -24000) (459, -24000) (460, -24000) (461, -24000) (462, -24000) (463, -24000) (464, -24000) (465, -24000) (466, 24000) (467, -24000) (468, -24000) (469, 24000) (470, -24000) (471, -24000) (472, -24000) (473, -24000) (474, -24000) (475, -24000) (476, 24000) (477, 24000) (478, 24000) (479, -24000) (480, 24000) (481, 24000) (482, -24000) (483, 24000) (484, -24000) (485, -24000) (486, -24000) (487, -24000) (488, -24000) (489, -24000) (490, -24000) (491, -24000) (492, 24000) (493, -24000) (494, 24000) (495, 24000) (496, 24000) (497, -24000) (498, 24000) (499, 24000) (500, 24000) (501, -24000) (502, -24000) (503, -24000) (504, 24000) (505, -24000) (506, 24000) (507, 24000) (508, 24000) (509, 24000) (510, 24000) (511, -24000) (512, -24000) (513, -24000) (514, -24000) (515, -24000) (516, -24000) (517, -24000) (518, -24000) (519, -24000) (520, 24000) (521, 24000) (522, 24000) (523, 24000) (524, -24000) (525, -24000) (526, -24000) (527, 24000) (528, -24000) (529, -24000) (530, -24000) (531, 24000) (532, 24000) (533, 24000) (534, -24000) (535, -24000) (536, -24000) (537, -24000) (538, 24000) (539, 24000) (540, 24000) (541, -24000) (542, -24000) (543, -24000) (544, -24000) (545, -24000) (546, -24000) (547, 24000) (548, -24000) (549, -24000) (550, 24000) (551, 24000) (552, 24000) (553, 24000) (554, -24000) (555, -24000) (556, 24000) (557, -24000) (558, -24000) (559, 24000) (560, -24000) (561, -24000) (562, -24000) (563, -24000) (564, 24000) (565, 24000) (566, 24000) (567, 24000) (568, -24000) (569, -24000) (570, -24000) (571, -24000) (572, -24000) (573, -24000) (574, -24000) (575, -24000) (576, -24000) (577, -24000) (578, -24000) (579, -24000) (580, 24000) (581, -24000) (582, -24000) (583, -24000) (584, -24000) (585, -24000) (586, -24000) (587, -24000) (588, -24000) (589, -24000) (590, 24000) (591, 24000) (592, 24000) (593, 24000) (594, -24000) (595, -24000) (596, -24000) (597, -24000) (598, 24000) (599, 24000) (600, 24000) (601, -24000) (602, -24000) (603, -24000) (604, -24000) (605, 24000) (606, -24000) (607, -24000) (608, -24000) (609, -24000) (610, -24000) (611, -24000) (612, -24000) (613, -24000) (614, -24000) (615, -24000) (616, 24000) (617, -24000) (618, 24000) (619, -24000) (620, -24000) (621, 24000) (622, -24000) (623, -24000) (624, -24000) (625, -24000) (626, -24000) (627, -24000) (628, 24000) (629, 24000) (630, -24000) (631, -24000) (632, 24000) (633, -24000) (634, -24000) (635, -24000) (636, -24000) (637, -24000) (638, -24000) (639, -24000) (640, 24000) (641, -24000) (642, -24000) (643, 24000) (644, -24000) (645, -24000) (646, -24000) (647, -24000) (648, -24000) (649, -24000) (650, 24000) (651, 24000) (652, -24000) (653, 24000) (654, 24000) (655, 24000) (656, 24000) (657, -24000) (658, 24000) (659, 24000) (660, -24000) (661, 24000) (662, 24000) (663, -24000) (664, -24000) (665, -24000) (666, -24000) (667, -24000) (668, -24000) (669, -24000) (670, -24000) (671, 24000) (672, 24000) (673, 24000) (674, -24000) (675, -24000) (676, -24000) (677, -24000) (678, -24000) (679, -24000) (680, -24000) (681, -24000) (682, -24000) (683, -24000) (684, 24000) (685, 24000) (686, 24000) (687, 24000) (688, -24000) (689, -24000) (690, 24000) (691, 24000) (692, -24000) (693, 24000) (694, 24000) (695, 24000) (696, -24000) (697, -24000) (698, -24000) (699, -24000) (700, -24000) (701, -24000) (702, -24000) (703, -24000) (704, -24000) (705, -24000) (706, -24000) (707, -24000) (708, -24000) (709, -24000) (710, -24000) (711, -24000) (712, -24000) (713, -24000) (714, -24000) (715, -24000) (716, -24000) (717, -24000) (718, -24000) (719, -24000) (720, -24000) (721, -24000) (722, -24000) (723, 24000) (724, 24000) (725, 24000) (726, 24000) (727, -24000) (728, -24000) (729, -24000) (730, -24000) (731, -24000) (732, -24000) (733, 24000) (734, -24000) (735, -24000) (736, -24000) (737, -24000) (738, -24000) (739, -24000) (740, -24000) (741, -24000) (742, 24000) (743, 24000) (744, -24000) (745, -24000) (746, 24000) (747, -24000) (748, -24000) (749, -24000) (750, 24000) (751, -24000) (752, -24000) (753, -24000) (754, -24000) (755, -24000) (756, -24000) (757, -24000) (758, -24000) (759, -24000) (760, -24000) (761, -24000) (762, -24000) (763, -24000) (764, -24000) (765, -24000) (766, -24000) (767, -24000) (768, -24000) (769, -24000) (770, 24000) (771, 24000) (772, 24000) (773, 24000) (774, 24000) (775, -24000) (776, -24000) (777, 24000) (778, -24000) (779, 24000) (780, 24000) (781, -24000) (782, 24000) (783, 24000) (784, 24000) (785, 24000) (786, -24000) (787, -24000) (788, -24000) (789, -24000) (790, -24000) (791, -24000) (792, -24000) (793, -24000) (794, -24000) (795, -24000) (796, -24000) (797, -24000) (798, -24000) (799, -24000) (800, -24000) (801, -24000) (802, 24000) (803, 24000) (804, 24000) (805, 24000) (806, 24000) (807, -24000) (808, -24000) (809, 24000) (810, 24000) (811, -24000) (812, 24000) (813, 24000) (814, 24000) (815, 24000) (816, -24000) (817, -24000) (818, -24000) (819, -24000) (820, -24000) (821, -24000) (822, -24000) (823, 24000) (824, 24000) (825, 24000) (826, -24000) (827, -24000) (828, -24000) (829, -24000) (830, -24000) (831, 24000) (832, -24000) (833, -24000) (834, -24000) (835, 24000) (836, 24000) (837, -24000) (838, -24000) (839, -24000) (840, -24000) (841, 24000) (842, -24000) (843, 24000) (844, 24000) (845, 24000) (846, -24000) (847, -24000) (848, -24000) (849, -24000) (850, -24000) (851, -24000) (852, -24000) (853, -24000) (854, -24000) (855, -24000) (856, -24000) (857, -24000) (858, 24000) (859, 24000) (860, 24000) (861, 24000) (862, 24000) (863, 24000) (864, 24000) (865, 24000) (866, -24000) (867, -24000) (868, -24000) (869, -24000) (870, -24000) (871, -24000) (872, -24000) (873, -24000) (874, 24000) (875, 24000) (876, -24000) (877, -24000) (878, -24000) (879, 24000) (880, 24000) (881, 24000) (882, -24000) (883, -24000) (884, 24000) (885, -24000) (886, -24000) (887, 24000) (888, 24000) (889, 24000) (890, 24000) (891, 24000) (892, 24000) (893, 24000) (894, 24000) (895, 24000) (896, -24000) (897, 24000) (898, 24000) (899, -24000) (900, -24000) (901, 24000) (902, -2) (901, 24000) (902, -2) (901, 24000) (902, -2) (901, 24000) (902, 375) (901, 24000) (902, -495) 
