FANN_FLO_2.1
num_layers=3
learning_rate=0.700000
connection_rate=1.000000
network_type=0
learning_momentum=0.000000
training_algorithm=2
train_error_function=1
train_stop_function=0
cascade_output_change_fraction=0.010000
quickprop_decay=-0.000100
quickprop_mu=1.750000
rprop_increase_factor=1.200000
rprop_decrease_factor=0.500000
rprop_delta_min=0.000000
rprop_delta_max=50.000000
rprop_delta_zero=0.100000
cascade_output_stagnation_epochs=12
cascade_candidate_change_fraction=0.010000
cascade_candidate_stagnation_epochs=12
cascade_max_out_epochs=150
cascade_min_out_epochs=50
cascade_max_cand_epochs=150
cascade_min_cand_epochs=50
cascade_num_candidate_groups=2
bit_fail_limit=3.49999994039535520000e-001
cascade_candidate_limit=1.00000000000000000000e+003
cascade_weight_multiplier=4.00000005960464480000e-001
cascade_activation_functions_count=10
cascade_activation_functions=3 5 7 8 10 11 14 15 16 17 
cascade_activation_steepnesses_count=4
cascade_activation_steepnesses=2.50000000000000000000e-001 5.00000000000000000000e-001 7.50000000000000000000e-001 1.00000000000000000000e+000 
layer_sizes=901 2 6 
scale_included=0
neurons (num_inputs, activation_function, activation_steepness)=(0, 0, 0.00000000000000000000e+000) (0, 0, 0.00000000000000000000e+000) (0, 0, 0.00000000000000000000e+000) (0, 0, 0.00000000000000000000e+000) (0, 0, 0.00000000000000000000e+000) (0, 0, 0.00000000000000000000e+000) (0, 0, 0.00000000000000000000e+000) (0, 0, 0.00000000000000000000e+000) (0, 0, 0.00000000000000000000e+000) (0, 0, 0.00000000000000000000e+000) (0, 0, 0.00000000000000000000e+000) (0, 0, 0.00000000000000000000e+000) (0, 0, 0.00000000000000000000e+000) (0, 0, 0.00000000000000000000e+000) (0, 0, 0.00000000000000000000e+000) (0, 0, 0.00000000000000000000e+000) (0, 0, 0.00000000000000000000e+000) (0, 0, 0.00000000000000000000e+000) (0, 0, 0.00000000000000000000e+000) (0, 0, 0.00000000000000000000e+000) (0, 0, 0.00000000000000000000e+000) (0, 0, 0.00000000000000000000e+000) (0, 0, 0.00000000000000000000e+000) (0, 0, 0.00000000000000000000e+000) (0, 0, 0.00000000000000000000e+000) (0, 0, 0.00000000000000000000e+000) (0, 0, 0.00000000000000000000e+000) (0, 0, 0.00000000000000000000e+000) (0, 0, 0.00000000000000000000e+000) (0, 0, 0.00000000000000000000e+000) (0, 0, 0.00000000000000000000e+000) (0, 0, 0.00000000000000000000e+000) (0, 0, 0.00000000000000000000e+000) (0, 0, 0.00000000000000000000e+000) (0, 0, 0.00000000000000000000e+000) (0, 0, 0.00000000000000000000e+000) (0, 0, 0.00000000000000000000e+000) (0, 0, 0.00000000000000000000e+000) (0, 0, 0.00000000000000000000e+000) (0, 0, 0.00000000000000000000e+000) (0, 0, 0.00000000000000000000e+000) (0, 0, 0.00000000000000000000e+000) (0, 0, 0.00000000000000000000e+000) (0, 0, 0.00000000000000000000e+000) (0, 0, 0.00000000000000000000e+000) (0, 0, 0.00000000000000000000e+000) (0, 0, 0.00000000000000000000e+000) (0, 0, 0.00000000000000000000e+000) (0, 0, 0.00000000000000000000e+000) (0, 0, 0.00000000000000000000e+000) (0, 0, 0.00000000000000000000e+000) (0, 0, 0.00000000000000000000e+000) (0, 0, 0.00000000000000000000e+000) (0, 0, 0.00000000000000000000e+000) (0, 0, 0.00000000000000000000e+000) (0, 0, 0.00000000000000000000e+000) (0, 0, 0.00000000000000000000e+000) (0, 0, 0.00000000000000000000e+000) (0, 0, 0.00000000000000000000e+000) (0, 0, 0.00000000000000000000e+000) (0, 0, 0.00000000000000000000e+000) (0, 0, 0.00000000000000000000e+000) (0, 0, 0.00000000000000000000e+000) (0, 0, 0.00000000000000000000e+000) (0, 0, 0.00000000000000000000e+000) (0, 0, 0.00000000000000000000e+000) (0, 0, 0.00000000000000000000e+000) (0, 0, 0.00000000000000000000e+000) (0, 0, 0.00000000000000000000e+000) (0, 0, 0.00000000000000000000e+000) (0, 0, 0.00000000000000000000e+000) (0, 0, 0.00000000000000000000e+000) (0, 0, 0.00000000000000000000e+000) (0, 0, 0.00000000000000000000e+000) (0, 0, 0.00000000000000000000e+000) (0, 0, 0.00000000000000000000e+000) (0, 0, 0.00000000000000000000e+000) (0, 0, 0.00000000000000000000e+000) (0, 0, 0.00000000000000000000e+000) (0, 0, 0.00000000000000000000e+000) (0, 0, 0.00000000000000000000e+000) (0, 0, 0.00000000000000000000e+000) (0, 0, 0.00000000000000000000e+000) (0, 0, 0.00000000000000000000e+000) (0, 0, 0.00000000000000000000e+000) (0, 0, 0.00000000000000000000e+000) (0, 0, 0.00000000000000000000e+000) (0, 0, 0.00000000000000000000e+000) (0, 0, 0.00000000000000000000e+000) (0, 0, 0.00000000000000000000e+000) (0, 0, 0.00000000000000000000e+000) (0, 0, 0.00000000000000000000e+000) (0, 0, 0.00000000000000000000e+000) (0, 0, 0.00000000000000000000e+000) (0, 0, 0.00000000000000000000e+000) (0, 0, 0.00000000000000000000e+000) (0, 0, 0.00000000000000000000e+000) (0, 0, 0.00000000000000000000e+000) (0, 0, 0.00000000000000000000e+000) (0, 0, 0.00000000000000000000e+000) (0, 0, 0.00000000000000000000e+000) (0, 0, 0.00000000000000000000e+000) (0, 0, 0.00000000000000000000e+000) (0, 0, 0.00000000000000000000e+000) (0, 0, 0.00000000000000000000e+000) (0, 0, 0.00000000000000000000e+000) (0, 0, 0.00000000000000000000e+000) (0, 0, 0.00000000000000000000e+000) (0, 0, 0.00000000000000000000e+000) (0, 0, 0.00000000000000000000e+000) (0, 0, 0.00000000000000000000e+000) (0, 0, 0.00000000000000000000e+000) (0, 0, 0.00000000000000000000e+000) (0, 0, 0.00000000000000000000e+000) (0, 0, 0.00000000000000000000e+000) (0, 0, 0.00000000000000000000e+000) (0, 0, 0.00000000000000000000e+000) (0, 0, 0.00000000000000000000e+000) (0, 0, 0.00000000000000000000e+000) (0, 0, 0.00000000000000000000e+000) (0, 0, 0.00000000000000000000e+000) (0, 0, 0.00000000000000000000e+000) (0, 0, 0.00000000000000000000e+000) (0, 0, 0.00000000000000000000e+000) (0, 0, 0.00000000000000000000e+000) (0, 0, 0.00000000000000000000e+000) (0, 0, 0.00000000000000000000e+000) (0, 0, 0.00000000000000000000e+000) (0, 0, 0.00000000000000000000e+000) (0, 0, 0.00000000000000000000e+000) (0, 0, 0.00000000000000000000e+000) (0, 0, 0.00000000000000000000e+000) (0, 0, 0.00000000000000000000e+000) (0, 0, 0.00000000000000000000e+000) (0, 0, 0.00000000000000000000e+000) (0, 0, 0.00000000000000000000e+000) (0, 0, 0.00000000000000000000e+000) (0, 0, 0.00000000000000000000e+000) (0, 0, 0.00000000000000000000e+000) (0, 0, 0.00000000000000000000e+000) (0, 0, 0.00000000000000000000e+000) (0, 0, 0.00000000000000000000e+000) (0, 0, 0.00000000000000000000e+000) (0, 0, 0.00000000000000000000e+000) (0, 0, 0.00000000000000000000e+000) (0, 0, 0.00000000000000000000e+000) (0, 0, 0.00000000000000000000e+000) (0, 0, 0.00000000000000000000e+000) (0, 0, 0.00000000000000000000e+000) (0, 0, 0.00000000000000000000e+000) (0, 0, 0.00000000000000000000e+000) (0, 0, 0.00000000000000000000e+000) (0, 0, 0.00000000000000000000e+000) (0, 0, 0.00000000000000000000e+000) (0, 0, 0.00000000000000000000e+000) (0, 0, 0.00000000000000000000e+000) (0, 0, 0.00000000000000000000e+000) (0, 0, 0.00000000000000000000e+000) (0, 0, 0.00000000000000000000e+000) (0, 0, 0.00000000000000000000e+000) (0, 0, 0.00000000000000000000e+000) (0, 0, 0.00000000000000000000e+000) (0, 0, 0.00000000000000000000e+000) (0, 0, 0.00000000000000000000e+000) (0, 0, 0.00000000000000000000e+000) (0, 0, 0.00000000000000000000e+000) (0, 0, 0.00000000000000000000e+000) (0, 0, 0.00000000000000000000e+000) (0, 0, 0.00000000000000000000e+000) (0, 0, 0.00000000000000000000e+000) (0, 0, 0.00000000000000000000e+000) (0, 0, 0.00000000000000000000e+000) (0, 0, 0.00000000000000000000e+000) (0, 0, 0.00000000000000000000e+000) (0, 0, 0.00000000000000000000e+000) (0, 0, 0.00000000000000000000e+000) (0, 0, 0.00000000000000000000e+000) (0, 0, 0.00000000000000000000e+000) (0, 0, 0.00000000000000000000e+000) (0, 0, 0.00000000000000000000e+000) (0, 0, 0.00000000000000000000e+000) (0, 0, 0.00000000000000000000e+000) (0, 0, 0.00000000000000000000e+000) (0, 0, 0.00000000000000000000e+000) (0, 0, 0.00000000000000000000e+000) (0, 0, 0.00000000000000000000e+000) (0, 0, 0.00000000000000000000e+000) (0, 0, 0.00000000000000000000e+000) (0, 0, 0.00000000000000000000e+000) (0, 0, 0.00000000000000000000e+000) (0, 0, 0.00000000000000000000e+000) (0, 0, 0.00000000000000000000e+000) (0, 0, 0.00000000000000000000e+000) (0, 0, 0.00000000000000000000e+000) (0, 0, 0.00000000000000000000e+000) (0, 0, 0.00000000000000000000e+000) (0, 0, 0.00000000000000000000e+000) (0, 0, 0.00000000000000000000e+000) (0, 0, 0.00000000000000000000e+000) (0, 0, 0.00000000000000000000e+000) (0, 0, 0.00000000000000000000e+000) (0, 0, 0.00000000000000000000e+000) (0, 0, 0.00000000000000000000e+000) (0, 0, 0.00000000000000000000e+000) (0, 0, 0.00000000000000000000e+000) (0, 0, 0.00000000000000000000e+000) (0, 0, 0.00000000000000000000e+000) (0, 0, 0.00000000000000000000e+000) (0, 0, 0.00000000000000000000e+000) (0, 0, 0.00000000000000000000e+000) (0, 0, 0.00000000000000000000e+000) (0, 0, 0.00000000000000000000e+000) (0, 0, 0.00000000000000000000e+000) (0, 0, 0.00000000000000000000e+000) (0, 0, 0.00000000000000000000e+000) (0, 0, 0.00000000000000000000e+000) (0, 0, 0.00000000000000000000e+000) (0, 0, 0.00000000000000000000e+000) (0, 0, 0.00000000000000000000e+000) (0, 0, 0.00000000000000000000e+000) (0, 0, 0.00000000000000000000e+000) (0, 0, 0.00000000000000000000e+000) (0, 0, 0.00000000000000000000e+000) (0, 0, 0.00000000000000000000e+000) (0, 0, 0.00000000000000000000e+000) (0, 0, 0.00000000000000000000e+000) (0, 0, 0.00000000000000000000e+000) (0, 0, 0.00000000000000000000e+000) (0, 0, 0.00000000000000000000e+000) (0, 0, 0.00000000000000000000e+000) (0, 0, 0.00000000000000000000e+000) (0, 0, 0.00000000000000000000e+000) (0, 0, 0.00000000000000000000e+000) (0, 0, 0.00000000000000000000e+000) (0, 0, 0.00000000000000000000e+000) (0, 0, 0.00000000000000000000e+000) (0, 0, 0.00000000000000000000e+000) (0, 0, 0.00000000000000000000e+000) (0, 0, 0.00000000000000000000e+000) (0, 0, 0.00000000000000000000e+000) (0, 0, 0.00000000000000000000e+000) (0, 0, 0.00000000000000000000e+000) (0, 0, 0.00000000000000000000e+000) (0, 0, 0.00000000000000000000e+000) (0, 0, 0.00000000000000000000e+000) (0, 0, 0.00000000000000000000e+000) (0, 0, 0.00000000000000000000e+000) (0, 0, 0.00000000000000000000e+000) (0, 0, 0.00000000000000000000e+000) (0, 0, 0.00000000000000000000e+000) (0, 0, 0.00000000000000000000e+000) (0, 0, 0.00000000000000000000e+000) (0, 0, 0.00000000000000000000e+000) (0, 0, 0.00000000000000000000e+000) (0, 0, 0.00000000000000000000e+000) (0, 0, 0.00000000000000000000e+000) (0, 0, 0.00000000000000000000e+000) (0, 0, 0.00000000000000000000e+000) (0, 0, 0.00000000000000000000e+000) (0, 0, 0.00000000000000000000e+000) (0, 0, 0.00000000000000000000e+000) (0, 0, 0.00000000000000000000e+000) (0, 0, 0.00000000000000000000e+000) (0, 0, 0.00000000000000000000e+000) (0, 0, 0.00000000000000000000e+000) (0, 0, 0.00000000000000000000e+000) (0, 0, 0.00000000000000000000e+000) (0, 0, 0.00000000000000000000e+000) (0, 0, 0.00000000000000000000e+000) (0, 0, 0.00000000000000000000e+000) (0, 0, 0.00000000000000000000e+000) (0, 0, 0.00000000000000000000e+000) (0, 0, 0.00000000000000000000e+000) (0, 0, 0.00000000000000000000e+000) (0, 0, 0.00000000000000000000e+000) (0, 0, 0.00000000000000000000e+000) (0, 0, 0.00000000000000000000e+000) (0, 0, 0.00000000000000000000e+000) (0, 0, 0.00000000000000000000e+000) (0, 0, 0.00000000000000000000e+000) (0, 0, 0.00000000000000000000e+000) (0, 0, 0.00000000000000000000e+000) (0, 0, 0.00000000000000000000e+000) (0, 0, 0.00000000000000000000e+000) (0, 0, 0.00000000000000000000e+000) (0, 0, 0.00000000000000000000e+000) (0, 0, 0.00000000000000000000e+000) (0, 0, 0.00000000000000000000e+000) (0, 0, 0.00000000000000000000e+000) (0, 0, 0.00000000000000000000e+000) (0, 0, 0.00000000000000000000e+000) (0, 0, 0.00000000000000000000e+000) (0, 0, 0.00000000000000000000e+000) (0, 0, 0.00000000000000000000e+000) (0, 0, 0.00000000000000000000e+000) (0, 0, 0.00000000000000000000e+000) (0, 0, 0.00000000000000000000e+000) (0, 0, 0.00000000000000000000e+000) (0, 0, 0.00000000000000000000e+000) (0, 0, 0.00000000000000000000e+000) (0, 0, 0.00000000000000000000e+000) (0, 0, 0.00000000000000000000e+000) (0, 0, 0.00000000000000000000e+000) (0, 0, 0.00000000000000000000e+000) (0, 0, 0.00000000000000000000e+000) (0, 0, 0.00000000000000000000e+000) (0, 0, 0.00000000000000000000e+000) (0, 0, 0.00000000000000000000e+000) (0, 0, 0.00000000000000000000e+000) (0, 0, 0.00000000000000000000e+000) (0, 0, 0.00000000000000000000e+000) (0, 0, 0.00000000000000000000e+000) (0, 0, 0.00000000000000000000e+000) (0, 0, 0.00000000000000000000e+000) (0, 0, 0.00000000000000000000e+000) (0, 0, 0.00000000000000000000e+000) (0, 0, 0.00000000000000000000e+000) (0, 0, 0.00000000000000000000e+000) (0, 0, 0.00000000000000000000e+000) (0, 0, 0.00000000000000000000e+000) (0, 0, 0.00000000000000000000e+000) (0, 0, 0.00000000000000000000e+000) (0, 0, 0.00000000000000000000e+000) (0, 0, 0.00000000000000000000e+000) (0, 0, 0.00000000000000000000e+000) (0, 0, 0.00000000000000000000e+000) (0, 0, 0.00000000000000000000e+000) (0, 0, 0.00000000000000000000e+000) (0, 0, 0.00000000000000000000e+000) (0, 0, 0.00000000000000000000e+000) (0, 0, 0.00000000000000000000e+000) (0, 0, 0.00000000000000000000e+000) (0, 0, 0.00000000000000000000e+000) (0, 0, 0.00000000000000000000e+000) (0, 0, 0.00000000000000000000e+000) (0, 0, 0.00000000000000000000e+000) (0, 0, 0.00000000000000000000e+000) (0, 0, 0.00000000000000000000e+000) (0, 0, 0.00000000000000000000e+000) (0, 0, 0.00000000000000000000e+000) (0, 0, 0.00000000000000000000e+000) (0, 0, 0.00000000000000000000e+000) (0, 0, 0.00000000000000000000e+000) (0, 0, 0.00000000000000000000e+000) (0, 0, 0.00000000000000000000e+000) (0, 0, 0.00000000000000000000e+000) (0, 0, 0.00000000000000000000e+000) (0, 0, 0.00000000000000000000e+000) (0, 0, 0.00000000000000000000e+000) (0, 0, 0.00000000000000000000e+000) (0, 0, 0.00000000000000000000e+000) (0, 0, 0.00000000000000000000e+000) (0, 0, 0.00000000000000000000e+000) (0, 0, 0.00000000000000000000e+000) (0, 0, 0.00000000000000000000e+000) (0, 0, 0.00000000000000000000e+000) (0, 0, 0.00000000000000000000e+000) (0, 0, 0.00000000000000000000e+000) (0, 0, 0.00000000000000000000e+000) (0, 0, 0.00000000000000000000e+000) (0, 0, 0.00000000000000000000e+000) (0, 0, 0.00000000000000000000e+000) (0, 0, 0.00000000000000000000e+000) (0, 0, 0.00000000000000000000e+000) (0, 0, 0.00000000000000000000e+000) (0, 0, 0.00000000000000000000e+000) (0, 0, 0.00000000000000000000e+000) (0, 0, 0.00000000000000000000e+000) (0, 0, 0.00000000000000000000e+000) (0, 0, 0.00000000000000000000e+000) (0, 0, 0.00000000000000000000e+000) (0, 0, 0.00000000000000000000e+000) (0, 0, 0.00000000000000000000e+000) (0, 0, 0.00000000000000000000e+000) (0, 0, 0.00000000000000000000e+000) (0, 0, 0.00000000000000000000e+000) (0, 0, 0.00000000000000000000e+000) (0, 0, 0.00000000000000000000e+000) (0, 0, 0.00000000000000000000e+000) (0, 0, 0.00000000000000000000e+000) (0, 0, 0.00000000000000000000e+000) (0, 0, 0.00000000000000000000e+000) (0, 0, 0.00000000000000000000e+000) (0, 0, 0.00000000000000000000e+000) (0, 0, 0.00000000000000000000e+000) (0, 0, 0.00000000000000000000e+000) (0, 0, 0.00000000000000000000e+000) (0, 0, 0.00000000000000000000e+000) (0, 0, 0.00000000000000000000e+000) (0, 0, 0.00000000000000000000e+000) (0, 0, 0.00000000000000000000e+000) (0, 0, 0.00000000000000000000e+000) (0, 0, 0.00000000000000000000e+000) (0, 0, 0.00000000000000000000e+000) (0, 0, 0.00000000000000000000e+000) (0, 0, 0.00000000000000000000e+000) (0, 0, 0.00000000000000000000e+000) (0, 0, 0.00000000000000000000e+000) (0, 0, 0.00000000000000000000e+000) (0, 0, 0.00000000000000000000e+000) (0, 0, 0.00000000000000000000e+000) (0, 0, 0.00000000000000000000e+000) (0, 0, 0.00000000000000000000e+000) (0, 0, 0.00000000000000000000e+000) (0, 0, 0.00000000000000000000e+000) (0, 0, 0.00000000000000000000e+000) (0, 0, 0.00000000000000000000e+000) (0, 0, 0.00000000000000000000e+000) (0, 0, 0.00000000000000000000e+000) (0, 0, 0.00000000000000000000e+000) (0, 0, 0.00000000000000000000e+000) (0, 0, 0.00000000000000000000e+000) (0, 0, 0.00000000000000000000e+000) (0, 0, 0.00000000000000000000e+000) (0, 0, 0.00000000000000000000e+000) (0, 0, 0.00000000000000000000e+000) (0, 0, 0.00000000000000000000e+000) (0, 0, 0.00000000000000000000e+000) (0, 0, 0.00000000000000000000e+000) (0, 0, 0.00000000000000000000e+000) (0, 0, 0.00000000000000000000e+000) (0, 0, 0.00000000000000000000e+000) (0, 0, 0.00000000000000000000e+000) (0, 0, 0.00000000000000000000e+000) (0, 0, 0.00000000000000000000e+000) (0, 0, 0.00000000000000000000e+000) (0, 0, 0.00000000000000000000e+000) (0, 0, 0.00000000000000000000e+000) (0, 0, 0.00000000000000000000e+000) (0, 0, 0.00000000000000000000e+000) (0, 0, 0.00000000000000000000e+000) (0, 0, 0.00000000000000000000e+000) (0, 0, 0.00000000000000000000e+000) (0, 0, 0.00000000000000000000e+000) (0, 0, 0.00000000000000000000e+000) (0, 0, 0.00000000000000000000e+000) (0, 0, 0.00000000000000000000e+000) (0, 0, 0.00000000000000000000e+000) (0, 0, 0.00000000000000000000e+000) (0, 0, 0.00000000000000000000e+000) (0, 0, 0.00000000000000000000e+000) (0, 0, 0.00000000000000000000e+000) (0, 0, 0.00000000000000000000e+000) (0, 0, 0.00000000000000000000e+000) (0, 0, 0.00000000000000000000e+000) (0, 0, 0.00000000000000000000e+000) (0, 0, 0.00000000000000000000e+000) (0, 0, 0.00000000000000000000e+000) (0, 0, 0.00000000000000000000e+000) (0, 0, 0.00000000000000000000e+000) (0, 0, 0.00000000000000000000e+000) (0, 0, 0.00000000000000000000e+000) (0, 0, 0.00000000000000000000e+000) (0, 0, 0.00000000000000000000e+000) (0, 0, 0.00000000000000000000e+000) (0, 0, 0.00000000000000000000e+000) (0, 0, 0.00000000000000000000e+000) (0, 0, 0.00000000000000000000e+000) (0, 0, 0.00000000000000000000e+000) (0, 0, 0.00000000000000000000e+000) (0, 0, 0.00000000000000000000e+000) (0, 0, 0.00000000000000000000e+000) (0, 0, 0.00000000000000000000e+000) (0, 0, 0.00000000000000000000e+000) (0, 0, 0.00000000000000000000e+000) (0, 0, 0.00000000000000000000e+000) (0, 0, 0.00000000000000000000e+000) (0, 0, 0.00000000000000000000e+000) (0, 0, 0.00000000000000000000e+000) (0, 0, 0.00000000000000000000e+000) (0, 0, 0.00000000000000000000e+000) (0, 0, 0.00000000000000000000e+000) (0, 0, 0.00000000000000000000e+000) (0, 0, 0.00000000000000000000e+000) (0, 0, 0.00000000000000000000e+000) (0, 0, 0.00000000000000000000e+000) (0, 0, 0.00000000000000000000e+000) (0, 0, 0.00000000000000000000e+000) (0, 0, 0.00000000000000000000e+000) (0, 0, 0.00000000000000000000e+000) (0, 0, 0.00000000000000000000e+000) (0, 0, 0.00000000000000000000e+000) (0, 0, 0.00000000000000000000e+000) (0, 0, 0.00000000000000000000e+000) (0, 0, 0.00000000000000000000e+000) (0, 0, 0.00000000000000000000e+000) (0, 0, 0.00000000000000000000e+000) (0, 0, 0.00000000000000000000e+000) (0, 0, 0.00000000000000000000e+000) (0, 0, 0.00000000000000000000e+000) (0, 0, 0.00000000000000000000e+000) (0, 0, 0.00000000000000000000e+000) (0, 0, 0.00000000000000000000e+000) (0, 0, 0.00000000000000000000e+000) (0, 0, 0.00000000000000000000e+000) (0, 0, 0.00000000000000000000e+000) (0, 0, 0.00000000000000000000e+000) (0, 0, 0.00000000000000000000e+000) (0, 0, 0.00000000000000000000e+000) (0, 0, 0.00000000000000000000e+000) (0, 0, 0.00000000000000000000e+000) (0, 0, 0.00000000000000000000e+000) (0, 0, 0.00000000000000000000e+000) (0, 0, 0.00000000000000000000e+000) (0, 0, 0.00000000000000000000e+000) (0, 0, 0.00000000000000000000e+000) (0, 0, 0.00000000000000000000e+000) (0, 0, 0.00000000000000000000e+000) (0, 0, 0.00000000000000000000e+000) (0, 0, 0.00000000000000000000e+000) (0, 0, 0.00000000000000000000e+000) (0, 0, 0.00000000000000000000e+000) (0, 0, 0.00000000000000000000e+000) (0, 0, 0.00000000000000000000e+000) (0, 0, 0.00000000000000000000e+000) (0, 0, 0.00000000000000000000e+000) (0, 0, 0.00000000000000000000e+000) (0, 0, 0.00000000000000000000e+000) (0, 0, 0.00000000000000000000e+000) (0, 0, 0.00000000000000000000e+000) (0, 0, 0.00000000000000000000e+000) (0, 0, 0.00000000000000000000e+000) (0, 0, 0.00000000000000000000e+000) (0, 0, 0.00000000000000000000e+000) (0, 0, 0.00000000000000000000e+000) (0, 0, 0.00000000000000000000e+000) (0, 0, 0.00000000000000000000e+000) (0, 0, 0.00000000000000000000e+000) (0, 0, 0.00000000000000000000e+000) (0, 0, 0.00000000000000000000e+000) (0, 0, 0.00000000000000000000e+000) (0, 0, 0.00000000000000000000e+000) (0, 0, 0.00000000000000000000e+000) (0, 0, 0.00000000000000000000e+000) (0, 0, 0.00000000000000000000e+000) (0, 0, 0.00000000000000000000e+000) (0, 0, 0.00000000000000000000e+000) (0, 0, 0.00000000000000000000e+000) (0, 0, 0.00000000000000000000e+000) (0, 0, 0.00000000000000000000e+000) (0, 0, 0.00000000000000000000e+000) (0, 0, 0.00000000000000000000e+000) (0, 0, 0.00000000000000000000e+000) (0, 0, 0.00000000000000000000e+000) (0, 0, 0.00000000000000000000e+000) (0, 0, 0.00000000000000000000e+000) (0, 0, 0.00000000000000000000e+000) (0, 0, 0.00000000000000000000e+000) (0, 0, 0.00000000000000000000e+000) (0, 0, 0.00000000000000000000e+000) (0, 0, 0.00000000000000000000e+000) (0, 0, 0.00000000000000000000e+000) (0, 0, 0.00000000000000000000e+000) (0, 0, 0.00000000000000000000e+000) (0, 0, 0.00000000000000000000e+000) (0, 0, 0.00000000000000000000e+000) (0, 0, 0.00000000000000000000e+000) (0, 0, 0.00000000000000000000e+000) (0, 0, 0.00000000000000000000e+000) (0, 0, 0.00000000000000000000e+000) (0, 0, 0.00000000000000000000e+000) (0, 0, 0.00000000000000000000e+000) (0, 0, 0.00000000000000000000e+000) (0, 0, 0.00000000000000000000e+000) (0, 0, 0.00000000000000000000e+000) (0, 0, 0.00000000000000000000e+000) (0, 0, 0.00000000000000000000e+000) (0, 0, 0.00000000000000000000e+000) (0, 0, 0.00000000000000000000e+000) (0, 0, 0.00000000000000000000e+000) (0, 0, 0.00000000000000000000e+000) (0, 0, 0.00000000000000000000e+000) (0, 0, 0.00000000000000000000e+000) (0, 0, 0.00000000000000000000e+000) (0, 0, 0.00000000000000000000e+000) (0, 0, 0.00000000000000000000e+000) (0, 0, 0.00000000000000000000e+000) (0, 0, 0.00000000000000000000e+000) (0, 0, 0.00000000000000000000e+000) (0, 0, 0.00000000000000000000e+000) (0, 0, 0.00000000000000000000e+000) (0, 0, 0.00000000000000000000e+000) (0, 0, 0.00000000000000000000e+000) (0, 0, 0.00000000000000000000e+000) (0, 0, 0.00000000000000000000e+000) (0, 0, 0.00000000000000000000e+000) (0, 0, 0.00000000000000000000e+000) (0, 0, 0.00000000000000000000e+000) (0, 0, 0.00000000000000000000e+000) (0, 0, 0.00000000000000000000e+000) (0, 0, 0.00000000000000000000e+000) (0, 0, 0.00000000000000000000e+000) (0, 0, 0.00000000000000000000e+000) (0, 0, 0.00000000000000000000e+000) (0, 0, 0.00000000000000000000e+000) (0, 0, 0.00000000000000000000e+000) (0, 0, 0.00000000000000000000e+000) (0, 0, 0.00000000000000000000e+000) (0, 0, 0.00000000000000000000e+000) (0, 0, 0.00000000000000000000e+000) (0, 0, 0.00000000000000000000e+000) (0, 0, 0.00000000000000000000e+000) (0, 0, 0.00000000000000000000e+000) (0, 0, 0.00000000000000000000e+000) (0, 0, 0.00000000000000000000e+000) (0, 0, 0.00000000000000000000e+000) (0, 0, 0.00000000000000000000e+000) (0, 0, 0.00000000000000000000e+000) (0, 0, 0.00000000000000000000e+000) (0, 0, 0.00000000000000000000e+000) (0, 0, 0.00000000000000000000e+000) (0, 0, 0.00000000000000000000e+000) (0, 0, 0.00000000000000000000e+000) (0, 0, 0.00000000000000000000e+000) (0, 0, 0.00000000000000000000e+000) (0, 0, 0.00000000000000000000e+000) (0, 0, 0.00000000000000000000e+000) (0, 0, 0.00000000000000000000e+000) (0, 0, 0.00000000000000000000e+000) (0, 0, 0.00000000000000000000e+000) (0, 0, 0.00000000000000000000e+000) (0, 0, 0.00000000000000000000e+000) (0, 0, 0.00000000000000000000e+000) (0, 0, 0.00000000000000000000e+000) (0, 0, 0.00000000000000000000e+000) (0, 0, 0.00000000000000000000e+000) (0, 0, 0.00000000000000000000e+000) (0, 0, 0.00000000000000000000e+000) (0, 0, 0.00000000000000000000e+000) (0, 0, 0.00000000000000000000e+000) (0, 0, 0.00000000000000000000e+000) (0, 0, 0.00000000000000000000e+000) (0, 0, 0.00000000000000000000e+000) (0, 0, 0.00000000000000000000e+000) (0, 0, 0.00000000000000000000e+000) (0, 0, 0.00000000000000000000e+000) (0, 0, 0.00000000000000000000e+000) (0, 0, 0.00000000000000000000e+000) (0, 0, 0.00000000000000000000e+000) (0, 0, 0.00000000000000000000e+000) (0, 0, 0.00000000000000000000e+000) (0, 0, 0.00000000000000000000e+000) (0, 0, 0.00000000000000000000e+000) (0, 0, 0.00000000000000000000e+000) (0, 0, 0.00000000000000000000e+000) (0, 0, 0.00000000000000000000e+000) (0, 0, 0.00000000000000000000e+000) (0, 0, 0.00000000000000000000e+000) (0, 0, 0.00000000000000000000e+000) (0, 0, 0.00000000000000000000e+000) (0, 0, 0.00000000000000000000e+000) (0, 0, 0.00000000000000000000e+000) (0, 0, 0.00000000000000000000e+000) (0, 0, 0.00000000000000000000e+000) (0, 0, 0.00000000000000000000e+000) (0, 0, 0.00000000000000000000e+000) (0, 0, 0.00000000000000000000e+000) (0, 0, 0.00000000000000000000e+000) (0, 0, 0.00000000000000000000e+000) (0, 0, 0.00000000000000000000e+000) (0, 0, 0.00000000000000000000e+000) (0, 0, 0.00000000000000000000e+000) (0, 0, 0.00000000000000000000e+000) (0, 0, 0.00000000000000000000e+000) (0, 0, 0.00000000000000000000e+000) (0, 0, 0.00000000000000000000e+000) (0, 0, 0.00000000000000000000e+000) (0, 0, 0.00000000000000000000e+000) (0, 0, 0.00000000000000000000e+000) (0, 0, 0.00000000000000000000e+000) (0, 0, 0.00000000000000000000e+000) (0, 0, 0.00000000000000000000e+000) (0, 0, 0.00000000000000000000e+000) (0, 0, 0.00000000000000000000e+000) (0, 0, 0.00000000000000000000e+000) (0, 0, 0.00000000000000000000e+000) (0, 0, 0.00000000000000000000e+000) (0, 0, 0.00000000000000000000e+000) (0, 0, 0.00000000000000000000e+000) (0, 0, 0.00000000000000000000e+000) (0, 0, 0.00000000000000000000e+000) (0, 0, 0.00000000000000000000e+000) (0, 0, 0.00000000000000000000e+000) (0, 0, 0.00000000000000000000e+000) (0, 0, 0.00000000000000000000e+000) (0, 0, 0.00000000000000000000e+000) (0, 0, 0.00000000000000000000e+000) (0, 0, 0.00000000000000000000e+000) (0, 0, 0.00000000000000000000e+000) (0, 0, 0.00000000000000000000e+000) (0, 0, 0.00000000000000000000e+000) (0, 0, 0.00000000000000000000e+000) (0, 0, 0.00000000000000000000e+000) (0, 0, 0.00000000000000000000e+000) (0, 0, 0.00000000000000000000e+000) (0, 0, 0.00000000000000000000e+000) (0, 0, 0.00000000000000000000e+000) (0, 0, 0.00000000000000000000e+000) (0, 0, 0.00000000000000000000e+000) (0, 0, 0.00000000000000000000e+000) (0, 0, 0.00000000000000000000e+000) (0, 0, 0.00000000000000000000e+000) (0, 0, 0.00000000000000000000e+000) (0, 0, 0.00000000000000000000e+000) (0, 0, 0.00000000000000000000e+000) (0, 0, 0.00000000000000000000e+000) (0, 0, 0.00000000000000000000e+000) (0, 0, 0.00000000000000000000e+000) (0, 0, 0.00000000000000000000e+000) (0, 0, 0.00000000000000000000e+000) (0, 0, 0.00000000000000000000e+000) (0, 0, 0.00000000000000000000e+000) (0, 0, 0.00000000000000000000e+000) (0, 0, 0.00000000000000000000e+000) (0, 0, 0.00000000000000000000e+000) (0, 0, 0.00000000000000000000e+000) (0, 0, 0.00000000000000000000e+000) (0, 0, 0.00000000000000000000e+000) (0, 0, 0.00000000000000000000e+000) (0, 0, 0.00000000000000000000e+000) (0, 0, 0.00000000000000000000e+000) (0, 0, 0.00000000000000000000e+000) (0, 0, 0.00000000000000000000e+000) (0, 0, 0.00000000000000000000e+000) (0, 0, 0.00000000000000000000e+000) (0, 0, 0.00000000000000000000e+000) (0, 0, 0.00000000000000000000e+000) (0, 0, 0.00000000000000000000e+000) (0, 0, 0.00000000000000000000e+000) (0, 0, 0.00000000000000000000e+000) (0, 0, 0.00000000000000000000e+000) (0, 0, 0.00000000000000000000e+000) (0, 0, 0.00000000000000000000e+000) (0, 0, 0.00000000000000000000e+000) (0, 0, 0.00000000000000000000e+000) (0, 0, 0.00000000000000000000e+000) (0, 0, 0.00000000000000000000e+000) (0, 0, 0.00000000000000000000e+000) (0, 0, 0.00000000000000000000e+000) (0, 0, 0.00000000000000000000e+000) (0, 0, 0.00000000000000000000e+000) (0, 0, 0.00000000000000000000e+000) (0, 0, 0.00000000000000000000e+000) (0, 0, 0.00000000000000000000e+000) (0, 0, 0.00000000000000000000e+000) (0, 0, 0.00000000000000000000e+000) (0, 0, 0.00000000000000000000e+000) (0, 0, 0.00000000000000000000e+000) (0, 0, 0.00000000000000000000e+000) (0, 0, 0.00000000000000000000e+000) (0, 0, 0.00000000000000000000e+000) (0, 0, 0.00000000000000000000e+000) (0, 0, 0.00000000000000000000e+000) (0, 0, 0.00000000000000000000e+000) (0, 0, 0.00000000000000000000e+000) (0, 0, 0.00000000000000000000e+000) (0, 0, 0.00000000000000000000e+000) (0, 0, 0.00000000000000000000e+000) (0, 0, 0.00000000000000000000e+000) (0, 0, 0.00000000000000000000e+000) (0, 0, 0.00000000000000000000e+000) (0, 0, 0.00000000000000000000e+000) (0, 0, 0.00000000000000000000e+000) (0, 0, 0.00000000000000000000e+000) (0, 0, 0.00000000000000000000e+000) (0, 0, 0.00000000000000000000e+000) (0, 0, 0.00000000000000000000e+000) (0, 0, 0.00000000000000000000e+000) (0, 0, 0.00000000000000000000e+000) (0, 0, 0.00000000000000000000e+000) (0, 0, 0.00000000000000000000e+000) (0, 0, 0.00000000000000000000e+000) (0, 0, 0.00000000000000000000e+000) (0, 0, 0.00000000000000000000e+000) (0, 0, 0.00000000000000000000e+000) (0, 0, 0.00000000000000000000e+000) (0, 0, 0.00000000000000000000e+000) (0, 0, 0.00000000000000000000e+000) (0, 0, 0.00000000000000000000e+000) (0, 0, 0.00000000000000000000e+000) (0, 0, 0.00000000000000000000e+000) (0, 0, 0.00000000000000000000e+000) (0, 0, 0.00000000000000000000e+000) (0, 0, 0.00000000000000000000e+000) (0, 0, 0.00000000000000000000e+000) (0, 0, 0.00000000000000000000e+000) (0, 0, 0.00000000000000000000e+000) (0, 0, 0.00000000000000000000e+000) (0, 0, 0.00000000000000000000e+000) (0, 0, 0.00000000000000000000e+000) (0, 0, 0.00000000000000000000e+000) (0, 0, 0.00000000000000000000e+000) (0, 0, 0.00000000000000000000e+000) (0, 0, 0.00000000000000000000e+000) (0, 0, 0.00000000000000000000e+000) (0, 0, 0.00000000000000000000e+000) (0, 0, 0.00000000000000000000e+000) (0, 0, 0.00000000000000000000e+000) (0, 0, 0.00000000000000000000e+000) (0, 0, 0.00000000000000000000e+000) (0, 0, 0.00000000000000000000e+000) (0, 0, 0.00000000000000000000e+000) (0, 0, 0.00000000000000000000e+000) (0, 0, 0.00000000000000000000e+000) (0, 0, 0.00000000000000000000e+000) (0, 0, 0.00000000000000000000e+000) (0, 0, 0.00000000000000000000e+000) (0, 0, 0.00000000000000000000e+000) (0, 0, 0.00000000000000000000e+000) (0, 0, 0.00000000000000000000e+000) (0, 0, 0.00000000000000000000e+000) (0, 0, 0.00000000000000000000e+000) (0, 0, 0.00000000000000000000e+000) (0, 0, 0.00000000000000000000e+000) (0, 0, 0.00000000000000000000e+000) (0, 0, 0.00000000000000000000e+000) (0, 0, 0.00000000000000000000e+000) (0, 0, 0.00000000000000000000e+000) (0, 0, 0.00000000000000000000e+000) (0, 0, 0.00000000000000000000e+000) (0, 0, 0.00000000000000000000e+000) (0, 0, 0.00000000000000000000e+000) (0, 0, 0.00000000000000000000e+000) (0, 0, 0.00000000000000000000e+000) (0, 0, 0.00000000000000000000e+000) (0, 0, 0.00000000000000000000e+000) (0, 0, 0.00000000000000000000e+000) (0, 0, 0.00000000000000000000e+000) (0, 0, 0.00000000000000000000e+000) (0, 0, 0.00000000000000000000e+000) (0, 0, 0.00000000000000000000e+000) (0, 0, 0.00000000000000000000e+000) (0, 0, 0.00000000000000000000e+000) (0, 0, 0.00000000000000000000e+000) (0, 0, 0.00000000000000000000e+000) (0, 0, 0.00000000000000000000e+000) (0, 0, 0.00000000000000000000e+000) (0, 0, 0.00000000000000000000e+000) (0, 0, 0.00000000000000000000e+000) (0, 0, 0.00000000000000000000e+000) (0, 0, 0.00000000000000000000e+000) (0, 0, 0.00000000000000000000e+000) (0, 0, 0.00000000000000000000e+000) (0, 0, 0.00000000000000000000e+000) (0, 0, 0.00000000000000000000e+000) (0, 0, 0.00000000000000000000e+000) (0, 0, 0.00000000000000000000e+000) (0, 0, 0.00000000000000000000e+000) (0, 0, 0.00000000000000000000e+000) (0, 0, 0.00000000000000000000e+000) (0, 0, 0.00000000000000000000e+000) (0, 0, 0.00000000000000000000e+000) (0, 0, 0.00000000000000000000e+000) (0, 0, 0.00000000000000000000e+000) (0, 0, 0.00000000000000000000e+000) (0, 0, 0.00000000000000000000e+000) (0, 0, 0.00000000000000000000e+000) (0, 0, 0.00000000000000000000e+000) (0, 0, 0.00000000000000000000e+000) (0, 0, 0.00000000000000000000e+000) (0, 0, 0.00000000000000000000e+000) (0, 0, 0.00000000000000000000e+000) (0, 0, 0.00000000000000000000e+000) (0, 0, 0.00000000000000000000e+000) (0, 0, 0.00000000000000000000e+000) (0, 0, 0.00000000000000000000e+000) (0, 0, 0.00000000000000000000e+000) (0, 0, 0.00000000000000000000e+000) (0, 0, 0.00000000000000000000e+000) (0, 0, 0.00000000000000000000e+000) (0, 0, 0.00000000000000000000e+000) (0, 0, 0.00000000000000000000e+000) (0, 0, 0.00000000000000000000e+000) (0, 0, 0.00000000000000000000e+000) (0, 0, 0.00000000000000000000e+000) (0, 0, 0.00000000000000000000e+000) (0, 0, 0.00000000000000000000e+000) (0, 0, 0.00000000000000000000e+000) (0, 0, 0.00000000000000000000e+000) (0, 0, 0.00000000000000000000e+000) (0, 0, 0.00000000000000000000e+000) (0, 0, 0.00000000000000000000e+000) (0, 0, 0.00000000000000000000e+000) (0, 0, 0.00000000000000000000e+000) (0, 0, 0.00000000000000000000e+000) (0, 0, 0.00000000000000000000e+000) (0, 0, 0.00000000000000000000e+000) (0, 0, 0.00000000000000000000e+000) (0, 0, 0.00000000000000000000e+000) (0, 0, 0.00000000000000000000e+000) (0, 0, 0.00000000000000000000e+000) (0, 0, 0.00000000000000000000e+000) (0, 0, 0.00000000000000000000e+000) (0, 0, 0.00000000000000000000e+000) (0, 0, 0.00000000000000000000e+000) (0, 0, 0.00000000000000000000e+000) (0, 0, 0.00000000000000000000e+000) (0, 0, 0.00000000000000000000e+000) (0, 0, 0.00000000000000000000e+000) (0, 0, 0.00000000000000000000e+000) (0, 0, 0.00000000000000000000e+000) (901, 3, 1.00000000000000000000e+000) (0, 3, 1.00000000000000000000e+000) (2, 3, 5.00000000000000000000e+000) (2, 3, 5.00000000000000000000e+000) (2, 3, 5.00000000000000000000e+000) (2, 3, 5.00000000000000000000e+000) (2, 3, 5.00000000000000000000e+000) (0, 3, 5.00000000000000000000e+000) 
connections (connected_to_neuron, weight)=(0, 1.50000000000000000000e+003) (1, -1.50000000000000000000e+003) (2, -1.50000000000000000000e+003) (3, -1.50000000000000000000e+003) (4, 1.50000000000000000000e+003) (5, 1.50000000000000000000e+003) (6, -1.50000000000000000000e+003) (7, -1.50000000000000000000e+003) (8, 1.50000000000000000000e+003) (9, 1.50000000000000000000e+003) (10, 1.50000000000000000000e+003) (11, -1.50000000000000000000e+003) (12, -1.50000000000000000000e+003) (13, 1.50000000000000000000e+003) (14, 1.50000000000000000000e+003) (15, 1.50000000000000000000e+003) (16, 1.50000000000000000000e+003) (17, -1.50000000000000000000e+003) (18, -1.50000000000000000000e+003) (19, -1.50000000000000000000e+003) (20, -1.50000000000000000000e+003) (21, -1.50000000000000000000e+003) (22, 1.50000000000000000000e+003) (23, -1.50000000000000000000e+003) (24, 1.50000000000000000000e+003) (25, 1.50000000000000000000e+003) (26, 1.50000000000000000000e+003) (27, 1.50000000000000000000e+003) (28, 1.50000000000000000000e+003) (29, 1.50000000000000000000e+003) (30, 1.50000000000000000000e+003) (31, 1.50000000000000000000e+003) (32, 1.50000000000000000000e+003) (33, -1.50000000000000000000e+003) (34, -1.50000000000000000000e+003) (35, -1.50000000000000000000e+003) (36, 1.50000000000000000000e+003) (37, 1.50000000000000000000e+003) (38, 1.50000000000000000000e+003) (39, 1.50000000000000000000e+003) (40, 1.50000000000000000000e+003) (41, -1.50000000000000000000e+003) (42, -1.50000000000000000000e+003) (43, -1.50000000000000000000e+003) (44, 1.50000000000000000000e+003) (45, 1.50000000000000000000e+003) (46, -1.50000000000000000000e+003) (47, -1.50000000000000000000e+003) (48, 1.50000000000000000000e+003) (49, 1.50000000000000000000e+003) (50, -1.50000000000000000000e+003) (51, -1.50000000000000000000e+003) (52, -1.50000000000000000000e+003) (53, -1.50000000000000000000e+003) (54, -1.50000000000000000000e+003) (55, -1.50000000000000000000e+003) (56, -1.50000000000000000000e+003) (57, -1.50000000000000000000e+003) (58, -1.50000000000000000000e+003) (59, -1.50000000000000000000e+003) (60, 1.50000000000000000000e+003) (61, 1.50000000000000000000e+003) (62, 1.50000000000000000000e+003) (63, -1.50000000000000000000e+003) (64, 1.50000000000000000000e+003) (65, 1.50000000000000000000e+003) (66, 1.50000000000000000000e+003) (67, 1.50000000000000000000e+003) (68, 1.50000000000000000000e+003) (69, 1.50000000000000000000e+003) (70, 1.50000000000000000000e+003) (71, 1.50000000000000000000e+003) (72, 1.50000000000000000000e+003) (73, 1.50000000000000000000e+003) (74, -1.50000000000000000000e+003) (75, -1.50000000000000000000e+003) (76, 1.50000000000000000000e+003) (77, -1.50000000000000000000e+003) (78, -1.50000000000000000000e+003) (79, -1.50000000000000000000e+003) (80, -1.50000000000000000000e+003) (81, -1.50000000000000000000e+003) (82, -1.50000000000000000000e+003) (83, -1.50000000000000000000e+003) (84, -1.50000000000000000000e+003) (85, -1.50000000000000000000e+003) (86, -1.50000000000000000000e+003) (87, -1.50000000000000000000e+003) (88, -1.50000000000000000000e+003) (89, -1.50000000000000000000e+003) (90, -1.50000000000000000000e+003) (91, -1.50000000000000000000e+003) (92, -1.50000000000000000000e+003) (93, -1.50000000000000000000e+003) (94, -1.50000000000000000000e+003) (95, -1.50000000000000000000e+003) (96, -1.50000000000000000000e+003) (97, -1.50000000000000000000e+003) (98, -1.50000000000000000000e+003) (99, -1.50000000000000000000e+003) (100, -1.50000000000000000000e+003) (101, -1.50000000000000000000e+003) (102, -1.50000000000000000000e+003) (103, -1.50000000000000000000e+003) (104, -1.50000000000000000000e+003) (105, -1.50000000000000000000e+003) (106, -1.50000000000000000000e+003) (107, -1.50000000000000000000e+003) (108, -1.50000000000000000000e+003) (109, -1.50000000000000000000e+003) (110, -1.50000000000000000000e+003) (111, -1.50000000000000000000e+003) (112, -1.50000000000000000000e+003) (113, -1.50000000000000000000e+003) (114, -1.50000000000000000000e+003) (115, -1.50000000000000000000e+003) (116, -1.50000000000000000000e+003) (117, -1.50000000000000000000e+003) (118, -1.50000000000000000000e+003) (119, -1.50000000000000000000e+003) (120, -1.50000000000000000000e+003) (121, -1.50000000000000000000e+003) (122, -1.50000000000000000000e+003) (123, -1.50000000000000000000e+003) (124, -1.50000000000000000000e+003) (125, -1.50000000000000000000e+003) (126, -1.50000000000000000000e+003) (127, -1.50000000000000000000e+003) (128, -1.50000000000000000000e+003) (129, -1.50000000000000000000e+003) (130, -1.50000000000000000000e+003) (131, -1.50000000000000000000e+003) (132, -1.50000000000000000000e+003) (133, -1.50000000000000000000e+003) (134, -1.50000000000000000000e+003) (135, -1.50000000000000000000e+003) (136, -1.50000000000000000000e+003) (137, -1.50000000000000000000e+003) (138, -1.50000000000000000000e+003) (139, -1.50000000000000000000e+003) (140, -1.50000000000000000000e+003) (141, -1.50000000000000000000e+003) (142, -1.50000000000000000000e+003) (143, -1.50000000000000000000e+003) (144, -1.50000000000000000000e+003) (145, -1.50000000000000000000e+003) (146, -1.50000000000000000000e+003) (147, -1.50000000000000000000e+003) (148, -1.50000000000000000000e+003) (149, -1.50000000000000000000e+003) (150, -1.50000000000000000000e+003) (151, -1.50000000000000000000e+003) (152, -1.50000000000000000000e+003) (153, -1.50000000000000000000e+003) (154, -1.50000000000000000000e+003) (155, -1.50000000000000000000e+003) (156, -1.50000000000000000000e+003) (157, -1.50000000000000000000e+003) (158, -1.50000000000000000000e+003) (159, -1.50000000000000000000e+003) (160, -1.50000000000000000000e+003) (161, -1.50000000000000000000e+003) (162, -1.50000000000000000000e+003) (163, -1.50000000000000000000e+003) (164, -1.50000000000000000000e+003) (165, -1.50000000000000000000e+003) (166, -1.50000000000000000000e+003) (167, -1.50000000000000000000e+003) (168, -1.50000000000000000000e+003) (169, -1.50000000000000000000e+003) (170, -1.50000000000000000000e+003) (171, -1.50000000000000000000e+003) (172, -1.50000000000000000000e+003) (173, -1.50000000000000000000e+003) (174, -1.50000000000000000000e+003) (175, -1.50000000000000000000e+003) (176, -1.50000000000000000000e+003) (177, -1.50000000000000000000e+003) (178, -1.50000000000000000000e+003) (179, 1.50000000000000000000e+003) (180, -1.50000000000000000000e+003) (181, 1.50000000000000000000e+003) (182, -1.50000000000000000000e+003) (183, -1.50000000000000000000e+003) (184, -1.50000000000000000000e+003) (185, -1.50000000000000000000e+003) (186, -1.50000000000000000000e+003) (187, -1.50000000000000000000e+003) (188, -1.50000000000000000000e+003) (189, -1.50000000000000000000e+003) (190, -1.50000000000000000000e+003) (191, -1.50000000000000000000e+003) (192, -1.50000000000000000000e+003) (193, -1.50000000000000000000e+003) (194, -1.50000000000000000000e+003) (195, -1.50000000000000000000e+003) (196, 1.50000000000000000000e+003) (197, -1.50000000000000000000e+003) (198, -1.50000000000000000000e+003) (199, -1.50000000000000000000e+003) (200, -1.50000000000000000000e+003) (201, 1.50000000000000000000e+003) (202, 1.50000000000000000000e+003) (203, -1.50000000000000000000e+003) (204, -1.50000000000000000000e+003) (205, -1.50000000000000000000e+003) (206, 1.50000000000000000000e+003) (207, 1.50000000000000000000e+003) (208, -1.50000000000000000000e+003) (209, -1.50000000000000000000e+003) (210, 1.50000000000000000000e+003) (211, -1.50000000000000000000e+003) (212, -1.50000000000000000000e+003) (213, -1.50000000000000000000e+003) (214, -1.50000000000000000000e+003) (215, -1.50000000000000000000e+003) (216, -1.50000000000000000000e+003) (217, -1.50000000000000000000e+003) (218, -1.50000000000000000000e+003) (219, -1.50000000000000000000e+003) (220, -1.50000000000000000000e+003) (221, -1.50000000000000000000e+003) (222, -1.50000000000000000000e+003) (223, -1.50000000000000000000e+003) (224, -1.50000000000000000000e+003) (225, -1.50000000000000000000e+003) (226, -1.50000000000000000000e+003) (227, -1.50000000000000000000e+003) (228, -1.50000000000000000000e+003) (229, -1.50000000000000000000e+003) (230, -1.50000000000000000000e+003) (231, -1.50000000000000000000e+003) (232, -1.50000000000000000000e+003) (233, 1.50000000000000000000e+003) (234, -1.50000000000000000000e+003) (235, -1.50000000000000000000e+003) (236, 1.50000000000000000000e+003) (237, 1.50000000000000000000e+003) (238, 1.50000000000000000000e+003) (239, 1.50000000000000000000e+003) (240, 1.50000000000000000000e+003) (241, 1.50000000000000000000e+003) (242, -1.50000000000000000000e+003) (243, -1.50000000000000000000e+003) (244, -1.50000000000000000000e+003) (245, 1.50000000000000000000e+003) (246, 1.50000000000000000000e+003) (247, 1.50000000000000000000e+003) (248, -1.50000000000000000000e+003) (249, -1.50000000000000000000e+003) (250, -1.50000000000000000000e+003) (251, 1.50000000000000000000e+003) (252, -1.50000000000000000000e+003) (253, 1.50000000000000000000e+003) (254, 1.50000000000000000000e+003) (255, -1.50000000000000000000e+003) (256, -1.50000000000000000000e+003) (257, -1.50000000000000000000e+003) (258, -1.50000000000000000000e+003) (259, 1.50000000000000000000e+003) (260, -1.50000000000000000000e+003) (261, -1.50000000000000000000e+003) (262, -1.50000000000000000000e+003) (263, -1.50000000000000000000e+003) (264, -1.50000000000000000000e+003) (265, -1.50000000000000000000e+003) (266, -1.50000000000000000000e+003) (267, 1.50000000000000000000e+003) (268, 1.50000000000000000000e+003) (269, 1.50000000000000000000e+003) (270, 1.50000000000000000000e+003) (271, 1.50000000000000000000e+003) (272, 1.50000000000000000000e+003) (273, 1.50000000000000000000e+003) (274, -1.50000000000000000000e+003) (275, -1.50000000000000000000e+003) (276, 1.50000000000000000000e+003) (277, 1.50000000000000000000e+003) (278, -1.50000000000000000000e+003) (279, -1.50000000000000000000e+003) (280, -1.50000000000000000000e+003) (281, -1.50000000000000000000e+003) (282, -1.50000000000000000000e+003) (283, -1.50000000000000000000e+003) (284, 1.50000000000000000000e+003) (285, -1.50000000000000000000e+003) (286, 1.50000000000000000000e+003) (287, 1.50000000000000000000e+003) (288, -1.50000000000000000000e+003) (289, -1.50000000000000000000e+003) (290, -1.50000000000000000000e+003) (291, 1.50000000000000000000e+003) (292, -1.50000000000000000000e+003) (293, 1.50000000000000000000e+003) (294, 1.50000000000000000000e+003) (295, 1.50000000000000000000e+003) (296, -1.50000000000000000000e+003) (297, -1.50000000000000000000e+003) (298, -1.50000000000000000000e+003) (299, -1.50000000000000000000e+003) (300, 1.50000000000000000000e+003) (301, -1.50000000000000000000e+003) (302, -1.50000000000000000000e+003) (303, -1.50000000000000000000e+003) (304, -1.50000000000000000000e+003) (305, 1.50000000000000000000e+003) (306, 1.50000000000000000000e+003) (307, -1.50000000000000000000e+003) (308, -1.50000000000000000000e+003) (309, -1.50000000000000000000e+003) (310, -1.50000000000000000000e+003) (311, 1.50000000000000000000e+003) (312, 1.50000000000000000000e+003) (313, 1.50000000000000000000e+003) (314, -1.50000000000000000000e+003) (315, -1.50000000000000000000e+003) (316, 1.50000000000000000000e+003) (317, -1.50000000000000000000e+003) (318, 1.50000000000000000000e+003) (319, 1.50000000000000000000e+003) (320, -1.50000000000000000000e+003) (321, -1.50000000000000000000e+003) (322, -1.50000000000000000000e+003) (323, 1.50000000000000000000e+003) (324, 1.50000000000000000000e+003) (325, 1.50000000000000000000e+003) (326, 1.50000000000000000000e+003) (327, -1.50000000000000000000e+003) (328, 1.50000000000000000000e+003) (329, 1.50000000000000000000e+003) (330, 1.50000000000000000000e+003) (331, -1.50000000000000000000e+003) (332, -1.50000000000000000000e+003) (333, 1.50000000000000000000e+003) (334, 1.50000000000000000000e+003) (335, 1.50000000000000000000e+003) (336, -1.50000000000000000000e+003) (337, -1.50000000000000000000e+003) (338, -1.50000000000000000000e+003) (339, -1.50000000000000000000e+003) (340, -1.50000000000000000000e+003) (341, -1.50000000000000000000e+003) (342, -1.50000000000000000000e+003) (343, 1.50000000000000000000e+003) (344, -1.50000000000000000000e+003) (345, -1.50000000000000000000e+003) (346, -1.50000000000000000000e+003) (347, -1.50000000000000000000e+003) (348, -1.50000000000000000000e+003) (349, -1.50000000000000000000e+003) (350, -1.50000000000000000000e+003) (351, 1.50000000000000000000e+003) (352, -1.50000000000000000000e+003) (353, -1.50000000000000000000e+003) (354, -1.50000000000000000000e+003) (355, -1.50000000000000000000e+003) (356, 1.50000000000000000000e+003) (357, 1.50000000000000000000e+003) (358, 1.50000000000000000000e+003) (359, 1.50000000000000000000e+003) (360, 1.50000000000000000000e+003) (361, -1.50000000000000000000e+003) (362, 1.50000000000000000000e+003) (363, 1.50000000000000000000e+003) (364, 1.50000000000000000000e+003) (365, 1.50000000000000000000e+003) (366, 1.50000000000000000000e+003) (367, -1.50000000000000000000e+003) (368, -1.50000000000000000000e+003) (369, -1.50000000000000000000e+003) (370, -1.50000000000000000000e+003) (371, -1.50000000000000000000e+003) (372, -1.50000000000000000000e+003) (373, -1.50000000000000000000e+003) (374, -1.50000000000000000000e+003) (375, 1.50000000000000000000e+003) (376, 1.50000000000000000000e+003) (377, -1.50000000000000000000e+003) (378, -1.50000000000000000000e+003) (379, -1.50000000000000000000e+003) (380, -1.50000000000000000000e+003) (381, -1.50000000000000000000e+003) (382, -1.50000000000000000000e+003) (383, -1.50000000000000000000e+003) (384, -1.50000000000000000000e+003) (385, -1.50000000000000000000e+003) (386, -1.50000000000000000000e+003) (387, 1.50000000000000000000e+003) (388, 1.50000000000000000000e+003) (389, 1.50000000000000000000e+003) (390, 1.50000000000000000000e+003) (391, 1.50000000000000000000e+003) (392, 1.50000000000000000000e+003) (393, 1.50000000000000000000e+003) (394, -1.50000000000000000000e+003) (395, -1.50000000000000000000e+003) (396, 1.50000000000000000000e+003) (397, -1.50000000000000000000e+003) (398, -1.50000000000000000000e+003) (399, -1.50000000000000000000e+003) (400, -1.50000000000000000000e+003) (401, -1.50000000000000000000e+003) (402, -1.50000000000000000000e+003) (403, -1.50000000000000000000e+003) (404, -1.50000000000000000000e+003) (405, -1.50000000000000000000e+003) (406, -1.50000000000000000000e+003) (407, 1.50000000000000000000e+003) (408, 1.50000000000000000000e+003) (409, 1.50000000000000000000e+003) (410, 1.50000000000000000000e+003) (411, -1.50000000000000000000e+003) (412, 1.50000000000000000000e+003) (413, 1.50000000000000000000e+003) (414, -1.50000000000000000000e+003) (415, 1.50000000000000000000e+003) (416, 1.50000000000000000000e+003) (417, -1.50000000000000000000e+003) (418, 1.50000000000000000000e+003) (419, -1.50000000000000000000e+003) (420, -1.50000000000000000000e+003) (421, -1.50000000000000000000e+003) (422, -1.50000000000000000000e+003) (423, -1.50000000000000000000e+003) (424, -1.50000000000000000000e+003) (425, 1.50000000000000000000e+003) (426, -1.50000000000000000000e+003) (427, -1.50000000000000000000e+003) (428, -1.50000000000000000000e+003) (429, -1.50000000000000000000e+003) (430, -1.50000000000000000000e+003) (431, -1.50000000000000000000e+003) (432, -1.50000000000000000000e+003) (433, -1.50000000000000000000e+003) (434, -1.50000000000000000000e+003) (435, -1.50000000000000000000e+003) (436, -1.50000000000000000000e+003) (437, -1.50000000000000000000e+003) (438, 1.50000000000000000000e+003) (439, -1.50000000000000000000e+003) (440, -1.50000000000000000000e+003) (441, 1.50000000000000000000e+003) (442, 1.50000000000000000000e+003) (443, 1.50000000000000000000e+003) (444, -1.50000000000000000000e+003) (445, -1.50000000000000000000e+003) (446, -1.50000000000000000000e+003) (447, 1.50000000000000000000e+003) (448, 1.50000000000000000000e+003) (449, 1.50000000000000000000e+003) (450, 1.50000000000000000000e+003) (451, -1.50000000000000000000e+003) (452, -1.50000000000000000000e+003) (453, -1.50000000000000000000e+003) (454, -1.50000000000000000000e+003) (455, -1.50000000000000000000e+003) (456, -1.50000000000000000000e+003) (457, -1.50000000000000000000e+003) (458, -1.50000000000000000000e+003) (459, -1.50000000000000000000e+003) (460, -1.50000000000000000000e+003) (461, -1.50000000000000000000e+003) (462, -1.50000000000000000000e+003) (463, -1.50000000000000000000e+003) (464, -1.50000000000000000000e+003) (465, -1.50000000000000000000e+003) (466, 1.50000000000000000000e+003) (467, -1.50000000000000000000e+003) (468, -1.50000000000000000000e+003) (469, 1.50000000000000000000e+003) (470, -1.50000000000000000000e+003) (471, -1.50000000000000000000e+003) (472, -1.50000000000000000000e+003) (473, -1.50000000000000000000e+003) (474, -1.50000000000000000000e+003) (475, -1.50000000000000000000e+003) (476, 1.50000000000000000000e+003) (477, 1.50000000000000000000e+003) (478, 1.50000000000000000000e+003) (479, -1.50000000000000000000e+003) (480, 1.50000000000000000000e+003) (481, 1.50000000000000000000e+003) (482, -1.50000000000000000000e+003) (483, 1.50000000000000000000e+003) (484, -1.50000000000000000000e+003) (485, -1.50000000000000000000e+003) (486, -1.50000000000000000000e+003) (487, -1.50000000000000000000e+003) (488, -1.50000000000000000000e+003) (489, -1.50000000000000000000e+003) (490, -1.50000000000000000000e+003) (491, -1.50000000000000000000e+003) (492, 1.50000000000000000000e+003) (493, -1.50000000000000000000e+003) (494, 1.50000000000000000000e+003) (495, 1.50000000000000000000e+003) (496, 1.50000000000000000000e+003) (497, -1.50000000000000000000e+003) (498, 1.50000000000000000000e+003) (499, 1.50000000000000000000e+003) (500, 1.50000000000000000000e+003) (501, -1.50000000000000000000e+003) (502, -1.50000000000000000000e+003) (503, -1.50000000000000000000e+003) (504, 1.50000000000000000000e+003) (505, -1.50000000000000000000e+003) (506, 1.50000000000000000000e+003) (507, 1.50000000000000000000e+003) (508, 1.50000000000000000000e+003) (509, 1.50000000000000000000e+003) (510, 1.50000000000000000000e+003) (511, -1.50000000000000000000e+003) (512, -1.50000000000000000000e+003) (513, -1.50000000000000000000e+003) (514, -1.50000000000000000000e+003) (515, -1.50000000000000000000e+003) (516, -1.50000000000000000000e+003) (517, -1.50000000000000000000e+003) (518, -1.50000000000000000000e+003) (519, -1.50000000000000000000e+003) (520, 1.50000000000000000000e+003) (521, 1.50000000000000000000e+003) (522, 1.50000000000000000000e+003) (523, 1.50000000000000000000e+003) (524, -1.50000000000000000000e+003) (525, -1.50000000000000000000e+003) (526, -1.50000000000000000000e+003) (527, 1.50000000000000000000e+003) (528, -1.50000000000000000000e+003) (529, -1.50000000000000000000e+003) (530, -1.50000000000000000000e+003) (531, 1.50000000000000000000e+003) (532, 1.50000000000000000000e+003) (533, 1.50000000000000000000e+003) (534, -1.50000000000000000000e+003) (535, -1.50000000000000000000e+003) (536, -1.50000000000000000000e+003) (537, -1.50000000000000000000e+003) (538, 1.50000000000000000000e+003) (539, 1.50000000000000000000e+003) (540, 1.50000000000000000000e+003) (541, -1.50000000000000000000e+003) (542, -1.50000000000000000000e+003) (543, -1.50000000000000000000e+003) (544, -1.50000000000000000000e+003) (545, -1.50000000000000000000e+003) (546, -1.50000000000000000000e+003) (547, 1.50000000000000000000e+003) (548, -1.50000000000000000000e+003) (549, -1.50000000000000000000e+003) (550, 1.50000000000000000000e+003) (551, 1.50000000000000000000e+003) (552, 1.50000000000000000000e+003) (553, 1.50000000000000000000e+003) (554, -1.50000000000000000000e+003) (555, -1.50000000000000000000e+003) (556, 1.50000000000000000000e+003) (557, -1.50000000000000000000e+003) (558, -1.50000000000000000000e+003) (559, 1.50000000000000000000e+003) (560, -1.50000000000000000000e+003) (561, -1.50000000000000000000e+003) (562, -1.50000000000000000000e+003) (563, -1.50000000000000000000e+003) (564, 1.50000000000000000000e+003) (565, 1.50000000000000000000e+003) (566, 1.50000000000000000000e+003) (567, 1.50000000000000000000e+003) (568, -1.50000000000000000000e+003) (569, -1.50000000000000000000e+003) (570, -1.50000000000000000000e+003) (571, -1.50000000000000000000e+003) (572, -1.50000000000000000000e+003) (573, -1.50000000000000000000e+003) (574, -1.50000000000000000000e+003) (575, -1.50000000000000000000e+003) (576, -1.50000000000000000000e+003) (577, -1.50000000000000000000e+003) (578, -1.50000000000000000000e+003) (579, -1.50000000000000000000e+003) (580, 1.50000000000000000000e+003) (581, -1.50000000000000000000e+003) (582, -1.50000000000000000000e+003) (583, -1.50000000000000000000e+003) (584, -1.50000000000000000000e+003) (585, -1.50000000000000000000e+003) (586, -1.50000000000000000000e+003) (587, -1.50000000000000000000e+003) (588, -1.50000000000000000000e+003) (589, -1.50000000000000000000e+003) (590, 1.50000000000000000000e+003) (591, 1.50000000000000000000e+003) (592, 1.50000000000000000000e+003) (593, 1.50000000000000000000e+003) (594, -1.50000000000000000000e+003) (595, -1.50000000000000000000e+003) (596, -1.50000000000000000000e+003) (597, -1.50000000000000000000e+003) (598, 1.50000000000000000000e+003) (599, 1.50000000000000000000e+003) (600, 1.50000000000000000000e+003) (601, -1.50000000000000000000e+003) (602, -1.50000000000000000000e+003) (603, -1.50000000000000000000e+003) (604, -1.50000000000000000000e+003) (605, 1.50000000000000000000e+003) (606, -1.50000000000000000000e+003) (607, -1.50000000000000000000e+003) (608, -1.50000000000000000000e+003) (609, -1.50000000000000000000e+003) (610, -1.50000000000000000000e+003) (611, -1.50000000000000000000e+003) (612, -1.50000000000000000000e+003) (613, -1.50000000000000000000e+003) (614, -1.50000000000000000000e+003) (615, -1.50000000000000000000e+003) (616, 1.50000000000000000000e+003) (617, -1.50000000000000000000e+003) (618, 1.50000000000000000000e+003) (619, -1.50000000000000000000e+003) (620, -1.50000000000000000000e+003) (621, 1.50000000000000000000e+003) (622, -1.50000000000000000000e+003) (623, -1.50000000000000000000e+003) (624, -1.50000000000000000000e+003) (625, -1.50000000000000000000e+003) (626, -1.50000000000000000000e+003) (627, -1.50000000000000000000e+003) (628, 1.50000000000000000000e+003) (629, 1.50000000000000000000e+003) (630, -1.50000000000000000000e+003) (631, -1.50000000000000000000e+003) (632, 1.50000000000000000000e+003) (633, -1.50000000000000000000e+003) (634, -1.50000000000000000000e+003) (635, -1.50000000000000000000e+003) (636, -1.50000000000000000000e+003) (637, -1.50000000000000000000e+003) (638, -1.50000000000000000000e+003) (639, -1.50000000000000000000e+003) (640, 1.50000000000000000000e+003) (641, -1.50000000000000000000e+003) (642, -1.50000000000000000000e+003) (643, 1.50000000000000000000e+003) (644, -1.50000000000000000000e+003) (645, -1.50000000000000000000e+003) (646, -1.50000000000000000000e+003) (647, -1.50000000000000000000e+003) (648, -1.50000000000000000000e+003) (649, -1.50000000000000000000e+003) (650, 1.50000000000000000000e+003) (651, 1.50000000000000000000e+003) (652, -1.50000000000000000000e+003) (653, 1.50000000000000000000e+003) (654, 1.50000000000000000000e+003) (655, 1.50000000000000000000e+003) (656, 1.50000000000000000000e+003) (657, -1.50000000000000000000e+003) (658, 1.50000000000000000000e+003) (659, 1.50000000000000000000e+003) (660, -1.50000000000000000000e+003) (661, 1.50000000000000000000e+003) (662, 1.50000000000000000000e+003) (663, -1.50000000000000000000e+003) (664, -1.50000000000000000000e+003) (665, -1.50000000000000000000e+003) (666, -1.50000000000000000000e+003) (667, -1.50000000000000000000e+003) (668, -1.50000000000000000000e+003) (669, -1.50000000000000000000e+003) (670, -1.50000000000000000000e+003) (671, 1.50000000000000000000e+003) (672, 1.50000000000000000000e+003) (673, 1.50000000000000000000e+003) (674, -1.50000000000000000000e+003) (675, -1.50000000000000000000e+003) (676, -1.50000000000000000000e+003) (677, -1.50000000000000000000e+003) (678, -1.50000000000000000000e+003) (679, -1.50000000000000000000e+003) (680, -1.50000000000000000000e+003) (681, -1.50000000000000000000e+003) (682, -1.50000000000000000000e+003) (683, -1.50000000000000000000e+003) (684, 1.50000000000000000000e+003) (685, 1.50000000000000000000e+003) (686, 1.50000000000000000000e+003) (687, 1.50000000000000000000e+003) (688, -1.50000000000000000000e+003) (689, -1.50000000000000000000e+003) (690, 1.50000000000000000000e+003) (691, 1.50000000000000000000e+003) (692, -1.50000000000000000000e+003) (693, 1.50000000000000000000e+003) (694, 1.50000000000000000000e+003) (695, 1.50000000000000000000e+003) (696, -1.50000000000000000000e+003) (697, -1.50000000000000000000e+003) (698, -1.50000000000000000000e+003) (699, -1.50000000000000000000e+003) (700, -1.50000000000000000000e+003) (701, -1.50000000000000000000e+003) (702, -1.50000000000000000000e+003) (703, -1.50000000000000000000e+003) (704, -1.50000000000000000000e+003) (705, -1.50000000000000000000e+003) (706, -1.50000000000000000000e+003) (707, -1.50000000000000000000e+003) (708, -1.50000000000000000000e+003) (709, -1.50000000000000000000e+003) (710, -1.50000000000000000000e+003) (711, -1.50000000000000000000e+003) (712, -1.50000000000000000000e+003) (713, -1.50000000000000000000e+003) (714, -1.50000000000000000000e+003) (715, -1.50000000000000000000e+003) (716, -1.50000000000000000000e+003) (717, -1.50000000000000000000e+003) (718, -1.50000000000000000000e+003) (719, -1.50000000000000000000e+003) (720, -1.50000000000000000000e+003) (721, -1.50000000000000000000e+003) (722, -1.50000000000000000000e+003) (723, 1.50000000000000000000e+003) (724, 1.50000000000000000000e+003) (725, 1.50000000000000000000e+003) (726, 1.50000000000000000000e+003) (727, -1.50000000000000000000e+003) (728, -1.50000000000000000000e+003) (729, -1.50000000000000000000e+003) (730, -1.50000000000000000000e+003) (731, -1.50000000000000000000e+003) (732, -1.50000000000000000000e+003) (733, 1.50000000000000000000e+003) (734, -1.50000000000000000000e+003) (735, -1.50000000000000000000e+003) (736, -1.50000000000000000000e+003) (737, -1.50000000000000000000e+003) (738, -1.50000000000000000000e+003) (739, -1.50000000000000000000e+003) (740, -1.50000000000000000000e+003) (741, -1.50000000000000000000e+003) (742, 1.50000000000000000000e+003) (743, 1.50000000000000000000e+003) (744, -1.50000000000000000000e+003) (745, -1.50000000000000000000e+003) (746, 1.50000000000000000000e+003) (747, -1.50000000000000000000e+003) (748, -1.50000000000000000000e+003) (749, -1.50000000000000000000e+003) (750, 1.50000000000000000000e+003) (751, -1.50000000000000000000e+003) (752, -1.50000000000000000000e+003) (753, -1.50000000000000000000e+003) (754, -1.50000000000000000000e+003) (755, -1.50000000000000000000e+003) (756, -1.50000000000000000000e+003) (757, -1.50000000000000000000e+003) (758, -1.50000000000000000000e+003) (759, -1.50000000000000000000e+003) (760, -1.50000000000000000000e+003) (761, -1.50000000000000000000e+003) (762, -1.50000000000000000000e+003) (763, -1.50000000000000000000e+003) (764, -1.50000000000000000000e+003) (765, -1.50000000000000000000e+003) (766, -1.50000000000000000000e+003) (767, -1.50000000000000000000e+003) (768, -1.50000000000000000000e+003) (769, -1.50000000000000000000e+003) (770, 1.50000000000000000000e+003) (771, 1.50000000000000000000e+003) (772, 1.50000000000000000000e+003) (773, 1.50000000000000000000e+003) (774, 1.50000000000000000000e+003) (775, -1.50000000000000000000e+003) (776, -1.50000000000000000000e+003) (777, 1.50000000000000000000e+003) (778, -1.50000000000000000000e+003) (779, 1.50000000000000000000e+003) (780, 1.50000000000000000000e+003) (781, -1.50000000000000000000e+003) (782, 1.50000000000000000000e+003) (783, 1.50000000000000000000e+003) (784, 1.50000000000000000000e+003) (785, 1.50000000000000000000e+003) (786, -1.50000000000000000000e+003) (787, -1.50000000000000000000e+003) (788, -1.50000000000000000000e+003) (789, -1.50000000000000000000e+003) (790, -1.50000000000000000000e+003) (791, -1.50000000000000000000e+003) (792, -1.50000000000000000000e+003) (793, -1.50000000000000000000e+003) (794, -1.50000000000000000000e+003) (795, -1.50000000000000000000e+003) (796, -1.50000000000000000000e+003) (797, -1.50000000000000000000e+003) (798, -1.50000000000000000000e+003) (799, -1.50000000000000000000e+003) (800, -1.50000000000000000000e+003) (801, -1.50000000000000000000e+003) (802, 1.50000000000000000000e+003) (803, 1.50000000000000000000e+003) (804, 1.50000000000000000000e+003) (805, 1.50000000000000000000e+003) (806, 1.50000000000000000000e+003) (807, -1.50000000000000000000e+003) (808, -1.50000000000000000000e+003) (809, 1.50000000000000000000e+003) (810, 1.50000000000000000000e+003) (811, -1.50000000000000000000e+003) (812, 1.50000000000000000000e+003) (813, 1.50000000000000000000e+003) (814, 1.50000000000000000000e+003) (815, 1.50000000000000000000e+003) (816, -1.50000000000000000000e+003) (817, -1.50000000000000000000e+003) (818, -1.50000000000000000000e+003) (819, -1.50000000000000000000e+003) (820, -1.50000000000000000000e+003) (821, -1.50000000000000000000e+003) (822, -1.50000000000000000000e+003) (823, 1.50000000000000000000e+003) (824, 1.50000000000000000000e+003) (825, 1.50000000000000000000e+003) (826, -1.50000000000000000000e+003) (827, -1.50000000000000000000e+003) (828, -1.50000000000000000000e+003) (829, -1.50000000000000000000e+003) (830, -1.50000000000000000000e+003) (831, 1.50000000000000000000e+003) (832, -1.50000000000000000000e+003) (833, -1.50000000000000000000e+003) (834, -1.50000000000000000000e+003) (835, 1.50000000000000000000e+003) (836, 1.50000000000000000000e+003) (837, -1.50000000000000000000e+003) (838, -1.50000000000000000000e+003) (839, -1.50000000000000000000e+003) (840, -1.50000000000000000000e+003) (841, 1.50000000000000000000e+003) (842, -1.50000000000000000000e+003) (843, 1.50000000000000000000e+003) (844, 1.50000000000000000000e+003) (845, 1.50000000000000000000e+003) (846, -1.50000000000000000000e+003) (847, -1.50000000000000000000e+003) (848, -1.50000000000000000000e+003) (849, -1.50000000000000000000e+003) (850, -1.50000000000000000000e+003) (851, -1.50000000000000000000e+003) (852, -1.50000000000000000000e+003) (853, -1.50000000000000000000e+003) (854, -1.50000000000000000000e+003) (855, -1.50000000000000000000e+003) (856, -1.50000000000000000000e+003) (857, -1.50000000000000000000e+003) (858, 1.50000000000000000000e+003) (859, 1.50000000000000000000e+003) (860, 1.50000000000000000000e+003) (861, 1.50000000000000000000e+003) (862, 1.50000000000000000000e+003) (863, 1.50000000000000000000e+003) (864, 1.50000000000000000000e+003) (865, 1.50000000000000000000e+003) (866, -1.50000000000000000000e+003) (867, -1.50000000000000000000e+003) (868, -1.50000000000000000000e+003) (869, -1.50000000000000000000e+003) (870, -1.50000000000000000000e+003) (871, -1.50000000000000000000e+003) (872, -1.50000000000000000000e+003) (873, -1.50000000000000000000e+003) (874, 1.50000000000000000000e+003) (875, 1.50000000000000000000e+003) (876, -1.50000000000000000000e+003) (877, -1.50000000000000000000e+003) (878, -1.50000000000000000000e+003) (879, 1.50000000000000000000e+003) (880, 1.50000000000000000000e+003) (881, 1.50000000000000000000e+003) (882, -1.50000000000000000000e+003) (883, -1.50000000000000000000e+003) (884, 1.50000000000000000000e+003) (885, -1.50000000000000000000e+003) (886, -1.50000000000000000000e+003) (887, 1.50000000000000000000e+003) (888, 1.50000000000000000000e+003) (889, 1.50000000000000000000e+003) (890, 1.50000000000000000000e+003) (891, 1.50000000000000000000e+003) (892, 1.50000000000000000000e+003) (893, 1.50000000000000000000e+003) (894, 1.50000000000000000000e+003) (895, 1.50000000000000000000e+003) (896, -1.50000000000000000000e+003) (897, 1.50000000000000000000e+003) (898, 1.50000000000000000000e+003) (899, -1.50000000000000000000e+003) (900, -1.50000000000000000000e+003) (901, 1.50000000000000000000e+003) (902, -9.47660729289054870000e-002) (901, 1.50000000000000000000e+003) (902, -1.13756269216537480000e-001) (901, 1.50000000000000000000e+003) (902, -1.13735191524028780000e-001) (901, 1.50000000000000000000e+003) (902, 2.34409027099609380000e+001) (901, 1.50000000000000000000e+003) (902, -3.09676303863525390000e+001) 
